"[-1.22573244e+00 -8.94917757e-01 -2.94434145e-01  4.90792057e-01
 -3.08522493e+00 -5.19851264e-01 -9.18542472e-02  8.66981280e-01
 -6.07524338e-01 -1.99131595e+00  6.83354689e-01 -4.62444207e-01
 -1.73617152e+00  8.95922474e-01 -1.22489937e+00  6.18094891e-01
 -6.73721675e-01 -1.26633714e+00  2.36465907e+00  1.54028573e-01
  1.14918721e+00 -3.30670598e-01 -2.70064304e-01 -7.06563695e-02
  1.27043182e-01 -7.45786865e-03  8.29264669e-01  4.44633588e-01
  3.83842465e-01  1.79214041e+00  1.20021729e+00 -2.78678119e-02
  2.19249120e-01  2.39316743e-01 -2.74646960e-02 -5.41736532e-01
 -1.03266049e+00 -9.50635436e-01  3.40016202e-01 -1.37965835e+00
  8.76979134e-02  1.26579204e-01 -2.38964520e-01 -1.14701910e+00
 -1.15629714e+00 -3.87121288e-01 -3.32885357e-01 -5.04988333e-01
 -9.35360488e-01  7.31216744e-01 -5.48773522e-01  9.84516718e-01
  5.84518473e-01 -5.60473587e-01  4.75932580e-01  2.67413709e-01
 -4.06957781e-01 -7.07310526e-01 -3.86032368e-01 -1.79945044e+00
 -4.60428162e-01  1.07672670e-01  4.52743017e-01 -6.75382830e-01
  1.31312631e+00 -9.31886521e-01  8.90109972e-01  7.07002570e-01
  5.17364409e-02  3.00937493e+00  3.52402781e-01  1.20401843e+00
 -4.92091866e-01  1.45439780e+00 -1.01394061e-03 -2.22336951e-01
 -1.17206246e+00  1.30232160e+00  7.85462363e-01 -8.13623250e-01
 -2.29051591e+00  1.30151867e+00  6.37400135e-01 -1.21892053e+00
  3.05512330e-01 -2.33947598e+00 -5.91358758e-01  3.81463870e-01
  2.93339885e-01  3.23691386e-01 -2.15261009e-01  5.02940101e-01
 -1.11785863e+00 -1.03515023e+00  4.09108569e-01  1.08606668e+00
 -2.88510857e-01  3.73847262e+00 -3.63135330e-01  1.63182547e+00
  2.08332960e+00  1.74953542e-01  7.53136713e-02  1.37068454e+00
 -1.24490041e+00  2.13106115e-01 -2.66858584e-01 -6.52212301e-01
  9.71560106e-02  1.18804087e+00  1.32018570e-01 -1.58607891e-01
  1.67517552e+00 -1.67785108e+00  1.03525218e+00 -9.59681545e-01
 -2.87748858e-01  6.92317453e-01  1.15452539e+00 -1.05051953e+00
  4.89611206e-01  4.71345136e-01 -1.05336762e+00 -1.62149557e+00
 -4.03055133e-01 -1.15354147e-01  2.01872929e-01  1.44296245e+00
 -1.24890094e+00  1.23824773e+00 -1.14631782e+00 -4.69503547e-01
  5.08326310e-01  2.14568057e+00  4.81004071e-01  1.86892093e+00
 -2.32872368e-01  6.32345809e-01 -8.13383902e-01 -3.09525513e-01
  7.76327113e-01  6.36567116e-01  6.77849538e-01 -7.78756391e-03
 -1.25160108e+00  1.03907751e+00  1.66003691e-01  4.23860839e-01
  2.01830306e+00 -3.93481127e-01  7.64322319e-01 -1.12150617e+00
 -1.06788897e+00 -4.40355088e-01  4.41031063e-01  1.09241873e+00
  7.10056405e-01 -1.00110594e-01 -1.43499967e+00 -8.82192078e-01
  7.41278429e-01  1.77985795e+00  1.28914056e+00  2.95301215e+00
  1.81888517e+00  1.48928650e+00 -1.38599344e-01  1.38965013e-01
 -1.09929752e-01 -6.70510243e-01  2.23657496e-01  3.78180508e-01
  6.89241534e-01  8.25207621e-01 -5.01604755e-01  5.57477761e-01
 -5.23693161e-01  1.26702261e+00  4.98499096e-01 -3.85535444e-02
  8.01351205e-01  1.61670623e+00  8.88431571e-01 -5.91706029e-01
 -7.39487339e-01 -1.42142118e+00 -1.16965423e+00  1.38898010e+00
 -1.06310932e+00 -1.12004105e+00  3.73426963e-01  8.24684800e-01
  1.93702028e+00 -4.75678039e-01 -2.05348151e-03  1.15650258e+00
  1.18983352e+00  6.12516570e-01 -5.09730218e-01  6.31399079e-01
  7.68080467e-01 -2.64420976e+00 -5.62785835e-01 -5.42610408e-01
  2.93061473e-01 -7.24439266e-01 -1.35364412e+00  6.91426061e-01
  6.57611397e-01  6.77697601e-01  8.28613225e-01  1.48090215e-02
  1.24619393e+00 -2.49235015e+00 -7.41828319e-01 -1.24667174e+00
  7.28254020e-01 -1.42545733e-01 -1.05295893e+00  1.62091883e+00
  1.10143336e+00  7.77918815e-01  6.73579948e-01  1.86727348e-01
 -1.34954306e+00  3.29794139e-01  1.37530387e+00 -3.97410252e-01
 -8.67510979e-01 -1.45078251e+00 -2.08356216e+00 -1.72830484e+00
 -9.31451172e-01 -2.38731549e+00  2.08576181e+00 -6.80836634e-01
  1.57029789e-01  6.73233204e-01  2.80177771e+00  6.84799842e-01
 -8.06684080e-01 -1.96909216e+00 -7.39152877e-01 -1.07257563e+00
  1.17212868e-01 -5.63632410e-01  7.68320851e-01  9.81343303e-01
  1.57936630e+00  1.55739634e+00 -1.32267426e+00 -1.50028513e+00
 -1.06301006e+00 -1.04258828e+00  3.59576534e-01 -1.02747833e+00
  4.40405533e-01  3.18855007e-01 -1.47589199e+00  8.34869278e-02
  1.68855297e+00 -1.65430025e+00 -5.55130973e-01 -7.34627534e-01
  4.41579678e-01  3.74605739e+00  4.97726313e+00 -1.13565057e+00
 -2.94874972e+00 -3.36056852e+00 -9.93441968e-01 -1.70846190e+00
 -4.77184739e-01 -2.48858109e-01 -8.58610696e-02  1.10306279e+00
  1.89493460e+00  9.21444949e-01  1.12761863e+00  1.57546599e+00
 -1.88747244e-01 -3.50523180e-01  9.88743782e-01 -8.88331967e-01
 -4.99824085e-01 -8.35539663e-01 -4.93489490e-01  1.05002064e+00
 -1.45775121e+00  1.41764333e+00  5.07437867e-01  3.07119788e+00
  2.07084732e+00  5.10939271e+00  1.32391290e+00 -2.77589507e+00
 -4.43182630e+00 -2.67285110e+00 -2.66876519e+00 -3.40832775e+00
 -1.36500591e+00 -1.76272717e+00  5.54901535e-01  6.68040241e-01
  1.26818274e+00 -2.48982216e-01  2.35051518e+00 -5.42853933e-01
  3.03530304e+00  2.01380051e+00 -1.70174708e-02  6.85156505e-01
 -6.36484331e-01 -5.44324737e-01 -2.77241097e-01  4.05071506e-01
 -7.30318023e-02  7.51946600e-01  2.63699846e-01  1.22611272e+00
  1.46058175e+00  6.44368220e-01 -1.89164658e+00 -1.12635811e+00
 -1.70416002e+00 -3.35012086e+00 -2.07161230e+00 -2.27990549e+00
 -2.68831868e+00 -2.93541684e+00 -8.37076948e-01 -1.41463480e+00
  5.51317457e-01 -6.50275570e-01 -1.54567462e+00  1.49902762e+00
 -9.41768598e-01 -3.44540016e-01 -2.92320846e-02  1.57336786e+00
  1.14170129e+00  6.99426036e-01  1.97583642e+00  8.32504925e-01
  3.03295273e+00  2.26590940e+00  1.63010361e+00  2.37963043e+00
  2.06465156e+00  7.94907444e-02 -2.00743554e+00 -1.73282618e+00
  3.45154508e-01 -3.16718669e+00 -9.97602651e-01 -1.42949766e+00
 -1.22233740e+00 -1.81098454e+00 -1.80572282e+00 -1.96441124e+00
 -6.08288509e-01 -2.17342964e+00 -1.22627441e+00 -6.53946062e-01
 -3.73769238e-01  7.29817793e-01 -4.04653542e-01  9.65559704e-01
  8.47968474e-01 -8.63260196e-01  1.70061962e+00  2.50372435e-01
  4.36330204e-01  5.92535547e-01  1.86782516e+00  1.84938722e+00
 -4.12023787e-01  3.06513220e-01 -2.04317111e+00  3.05921988e-01
 -3.10020040e+00 -8.82138775e-01 -2.12589609e+00 -3.61327622e-01
 -2.28637822e+00 -7.95213715e-02  1.43696232e+00 -5.01042796e-01
  4.04003974e-02  8.97951861e-01 -1.83134691e+00 -2.34545014e-01
  1.36356377e-01 -4.06316356e-02  1.20059034e+00  4.42619228e-01
  2.72184957e-01  1.14849996e+00  1.23904933e+00  1.86487112e+00
  8.31434975e-01 -4.34753214e-01  1.25350506e+00 -1.34693896e+00
 -1.77675601e+00 -1.98610642e+00 -1.20915326e+00 -1.06336970e+00
 -1.48806579e+00 -3.34379379e+00 -4.89036429e-01 -1.32735586e+00
  9.89527792e-01 -3.92671853e-01  5.02659636e-01  1.97862453e+00
  1.17308957e-01 -1.38924584e+00  2.29153949e-01  2.56207408e+00
  5.47053256e-01  8.71472165e-01 -1.67267062e-01 -1.78441182e+00
  3.23028726e-01  9.92884770e-01  2.98757366e+00 -1.65752920e-03
  1.34098273e+00  1.81861572e+00  8.73264670e-01 -5.02715508e-01
  9.35572848e-01 -1.00745306e+00 -1.66972171e+00 -1.66790981e+00
 -1.34992092e+00 -1.93893648e+00  5.66753351e-01 -1.42715643e+00
  1.43544958e+00  1.54650040e+00  2.10671938e+00  2.13689622e+00
  2.24514607e+00  1.69450668e-01 -6.69832723e-02 -8.87419822e-01
 -1.53550813e+00 -1.00647243e+00 -9.95913814e-01 -8.22208667e-01
 -1.72736322e-01 -1.26008577e+00  1.56650544e+00 -4.03281526e+00
  6.51351489e-01 -2.96217755e-01  2.98466075e-01 -2.40277913e-01
 -2.39607538e+00 -7.59529772e-01 -3.93872106e-01 -2.70523743e+00
 -1.95414972e+00 -1.51011177e+00 -5.05576274e-02 -8.07004880e-01
  1.48728027e+00 -3.71893083e-02  1.67122184e+00 -2.64377881e-01
 -8.30692340e-03  6.37391117e-01 -6.91893699e-01 -1.43440307e+00
  4.35076583e-01  6.92490975e-01  6.84457662e-01 -5.93455040e-01
 -5.02955368e-01 -1.72775227e+00 -9.74026518e-01 -5.08770094e-01
 -1.80829493e+00 -1.53721272e+00 -2.10080084e+00 -1.73726831e-01
 -1.04372391e+00 -2.39971416e+00 -5.55602330e-01 -1.07550602e-02
 -8.37353039e-01  7.31370315e-01  2.31149437e+00  2.19124264e+00
  1.50747117e+00 -1.25702685e+00  1.84071331e-01 -1.52082885e+00
  3.98730329e-01  9.67448070e-01  1.10815341e+00  4.51397579e-02
  7.51799310e-01 -6.50781365e-01 -1.44990137e+00  1.84682954e+00
 -1.16573619e+00  1.95270441e-01 -8.22506966e-01  7.70317062e-01
  2.87139538e-01 -1.31520958e+00  7.17777004e-01 -2.20392332e+00
 -1.99121439e+00 -2.86618407e+00  1.42354381e-01 -4.91717605e-01
 -5.26949917e-01  8.94243253e-01 -4.85627881e-01  6.03883406e-01
  1.53873970e+00  8.08800397e-01  3.96993535e-01  3.99233265e-01
 -2.52528545e-01 -1.39062752e-01 -1.03402320e+00  4.34873274e-01
 -1.50917190e+00  3.57964211e-01  6.32151096e-01 -1.05784396e+00
  1.03205896e+00  2.99122249e-01  1.08765573e+00  3.74422062e-01
 -1.54966017e+00  3.51520428e-01 -2.16954118e+00 -1.65201127e+00
 -1.73626889e+00 -3.27423077e-01  6.70118469e-01  1.31013783e+00
  2.19579844e+00  7.77770680e-01 -1.69523327e-01  2.85269116e+00
 -1.99826773e+00  1.49768259e+00  1.97460072e-01  1.21569648e-02
  1.06003658e+00  1.06247624e+00  9.73236665e-01 -1.05575146e-01
  2.75015221e-01 -2.07521756e-01  1.16332141e+00  1.30859962e+00
 -2.36173718e+00  3.68622696e-01  9.03733027e-01 -1.17295764e+00
  5.64956015e-01 -5.76977090e-01  2.42106663e-01  3.30040024e+00
  1.11906660e+00  7.28571877e-01  3.98612156e+00  1.14895807e+00
  1.95371786e+00 -7.96461236e-01 -3.58407430e-01 -9.27860226e-01
 -1.64000352e+00 -1.64820893e-01  1.20659039e+00  2.70578825e+00
 -2.32912901e-01 -6.04742707e-01 -9.28358092e-01  9.72356903e-01
  7.45378271e-01 -1.49334751e-01 -1.08963361e+00  6.88517963e-01
  1.40688857e-01 -6.15214607e-01 -1.97959949e+00 -3.31210450e-01
  1.32939202e+00  1.85060049e-01 -1.57007521e-01  4.27980708e-01
  7.97043642e-01  5.65332862e-01  1.03184401e-01  1.35934813e-01
  2.10185111e+00  8.94737849e-01  9.70311079e-02  2.30641698e+00
  1.26048449e+00  2.65618154e-01  1.72157934e+00 -5.23423448e-01
 -2.52551995e-01  1.36398036e+00 -9.86690539e-02  1.71605211e+00
  4.89167786e-01  7.02362012e-01 -4.06963433e-01  4.36466730e-01
 -3.95156343e-02 -4.95779801e-01 -4.15311025e-01  3.67567641e-02
 -1.06693971e+00  1.03161254e+00  2.89277330e-01 -2.24659793e-01
  2.59560021e+00 -9.48837726e-01  1.04446461e+00  7.47272896e-01
  1.18442764e-01  5.04806705e-01  2.37786920e+00 -2.86837152e-01
  6.28086562e-01 -5.76240407e-01  1.05529807e+00  7.57527475e-01
 -2.31606313e+00 -1.04427626e+00 -6.67704343e-01 -1.67004050e+00
 -2.00020773e-01  8.50996515e-03  6.17541529e-01  9.08921988e-01
  6.71692615e-01  5.91470320e-01  1.66964759e+00 -2.20942920e+00
 -8.73521150e-01 -3.48195851e-02  1.89216228e+00 -3.16501850e-01
 -4.97664554e-01 -7.34465473e-01  9.91827136e-01  3.55445360e-01
  1.01224051e+00  3.48328560e-01 -1.28438522e+00 -1.02753373e+00
  2.69566651e+00  6.53145177e-01  1.48783455e+00 -4.81967351e-01
 -1.31649281e+00  3.05604732e-01  1.43180557e+00 -2.16662246e+00
 -7.20050275e-01 -1.65535584e+00 -4.47727800e-01 -7.78819982e-01
  5.48852559e-01 -7.12396638e-01  6.20415525e-01 -6.27545157e-01
 -5.67384024e-01  1.40599638e+00 -4.95662712e-01  6.81076279e-01
  2.76242741e-01 -9.35152268e-01  1.01958161e+00  1.66805079e+00
 -2.09667538e+00  1.84687570e+00 -6.48431243e-01  9.47109250e-01
  2.38277614e-01 -6.85939501e-01  1.24913578e+00 -4.31000863e-01
 -8.82069170e-01  1.42196016e+00  4.48418012e-01  6.15809982e-01
 -9.61301960e-01  1.70488928e+00 -1.02389131e+00 -1.40568565e+00
  1.19489714e+00 -2.16824644e-01  1.42040394e+00 -3.41549356e-01
  1.93291556e+00 -3.12209719e-01 -6.24649434e-01  1.51898762e+00
 -7.01131000e-01 -7.71827724e-01  3.44993796e-01 -2.68147421e-01
  6.96393612e-01  1.70528320e+00  3.83895681e+00  2.21930988e+00
  4.45656545e-01 -6.89605611e-01  6.69602955e-01  1.37135895e+00
  2.31305955e+00 -1.07150206e+00  4.41656118e-01  9.19378814e-01
  4.87163806e-01 -5.96752559e-01 -3.89670512e-01  6.66129093e-01
  2.46103978e-01 -2.59867647e-02  6.87922772e-01 -2.43304678e+00
  1.00236272e+00  9.93690231e-01 -4.25974126e-01 -6.88953062e-01
  1.16179848e+00  3.31878642e-01  1.28698183e+00 -1.39863563e-01
 -5.34440739e-01  8.85634179e-01  1.60266922e+00 -2.27407754e-01
 -9.36426507e-02  8.50029005e-01 -3.23812620e-01  7.13963384e-02
 -3.77978285e-01 -1.04359368e+00 -6.34462609e-01 -2.59766469e-01
 -1.11060175e+00 -8.94292259e-01 -1.00285122e+00 -1.38761799e-01
 -7.55413487e-02  1.21164483e+00  4.80999636e-03 -1.27920817e+00
  8.32829769e-01 -3.12994334e-01 -5.31222091e-01 -2.09115736e-01
  2.02323920e+00 -5.70535182e-01  6.62656503e-01 -1.47311250e-01
 -4.46755174e-01 -3.74878598e-01  4.17547884e-01  6.66430662e-01
  1.15852273e+00 -7.90689129e-01 -1.73582340e+00 -2.13351480e-01
  1.32213928e+00 -5.40634293e-01 -9.25932887e-01 -3.12185747e+00]","[ 7.49948085e-01  6.69459620e-01  5.30778498e-01  5.50529873e-01
  1.80313292e-01  1.07326549e+00  2.19170325e+00 -1.44927203e+00
 -1.13820729e+00  5.16194251e-01 -2.30066060e+00  3.60544325e-02
 -1.66913261e-01 -9.62291884e-01 -3.95976069e-01 -8.10474042e-01
 -1.71601425e+00  2.06249978e+00  1.99281630e+00  7.07748943e-01
  5.94543811e-01  3.09878794e+00 -2.95224770e-01  9.26821570e-01
 -6.39044818e-01 -8.13751938e-01 -7.97010553e-01  3.64312066e-01
 -7.49036806e-01  8.04648773e-01  7.50486556e-01 -2.18413713e+00
  1.70735905e+00 -7.65982760e-01  1.69735653e-01  1.68359010e+00
  1.78824135e-01 -2.89689270e-01 -9.74678502e-02 -8.41122370e-01
  5.45222105e-01 -1.00675644e+00  1.44204507e+00 -8.16956087e-01
  5.49462461e-01 -2.24558150e+00  3.59511158e-02 -1.64127551e+00
 -6.56085356e-01 -1.84297514e-01  7.47716102e-01 -5.74795632e-01
 -2.17275254e+00 -2.81955777e-01  6.42228905e-01  1.22860302e+00
 -5.16503637e-01  2.78153577e-01  1.31369088e+00  9.62026133e-02
 -6.56573103e-01 -6.55560534e-01 -1.43844068e+00 -5.66976907e-01
 -2.16381804e+00  6.28795869e-01  1.94495768e-01 -1.76702935e+00
  1.59788139e+00 -5.96579187e-01 -4.30940003e-01  1.49372496e-01
 -8.64160965e-01  2.80526943e+00  3.66756491e-01  1.99647452e+00
  1.82313198e-01  1.22927049e+00  2.76506392e+00  6.04398865e-01
  5.93766396e-02 -1.62406085e+00  3.52143663e-01 -7.21529287e-02
 -1.09018047e+00 -8.52975264e-01 -1.69646766e-01 -2.87240120e-01
 -2.67561752e-01 -1.33564087e+00  1.53612141e+00  1.62646697e+00
  3.75453882e-01 -1.09800955e+00 -5.04992183e-01 -7.17740508e-01
 -2.38408268e+00 -1.02187223e+00 -3.12826224e+00  8.64774651e-01
 -7.22351305e-01  2.58527595e-03  4.62208813e-01  1.68829724e+00
 -2.69552353e+00  8.93478501e-01  2.60544854e-01  9.97556465e-01
 -7.65498735e-01  3.23033764e-01 -9.36583996e-01 -7.98177534e-01
  5.94060125e-02  1.21747214e+00 -3.86732997e-01 -4.77979059e-01
  1.76429044e+00  2.30345746e-01  4.44566584e-01 -8.96168103e-01
 -2.31662061e-01 -2.36458803e+00 -1.69040261e+00 -1.57546639e+00
 -1.75030924e+00 -2.63851191e+00 -5.15407485e-01 -2.00498208e+00
  1.00424698e+00 -6.87508029e-01 -2.24928395e-01 -8.36192516e-03
 -1.08132963e-01  1.53629899e+00  5.44007411e-01  9.48905615e-01
  9.21193361e-01  2.74408130e-01  4.09781039e-01 -3.00827574e-02
 -1.15675653e+00  3.01853945e-01  4.55632906e-02 -2.05275288e-01
 -3.50916866e-01 -2.46595827e-01  1.06061242e-01 -6.89136460e-01
 -1.51119852e+00 -3.34727663e+00 -2.25374061e+00  7.05842018e-02
 -1.76086607e+00 -1.34898429e+00  8.02795313e-01 -1.30560906e+00
 -1.43528177e+00  7.94199814e-01  2.70937614e-01 -2.52270596e-01
  2.32786738e-01  1.77604523e-01 -1.13665716e-01  8.39842499e-01
  2.55427246e-01  1.01655026e+00 -4.43476529e-01  6.19085573e-01
  1.27818536e+00  3.18861198e-01  1.84321429e+00  1.06379576e-01
  1.51186492e+00 -4.13567869e-01 -1.56707583e+00 -1.40944204e+00
 -1.06874967e+00 -3.42342497e+00 -1.99138935e+00 -4.86291499e-01
 -2.22837467e-02 -1.89632604e+00  2.06731956e-01 -5.50670634e-01
 -6.90361817e-01  4.43382435e-01 -6.09194722e-01  6.79523548e-01
  7.17289119e-01  1.03863478e+00  4.50487227e-01  1.94450125e+00
  6.62207114e-01 -3.25268033e-01 -1.17905590e-01 -2.83958271e-01
 -5.69719499e-01  1.21348089e+00  2.65872871e-01  1.62101076e-01
 -1.57382901e+00 -7.29991487e-01  7.25422641e-01 -8.47929387e-01
 -1.57822987e+00 -1.42040558e+00  6.99810457e-01 -2.86040641e-01
 -1.56936787e+00 -7.12201888e-01 -1.73334412e+00 -5.84674345e-01
  5.04285000e-01  1.42134681e-01  5.72655652e-01  3.93486598e-01
  6.35464543e-01 -9.24793688e-01 -6.31633375e-02  1.95229280e+00
  1.56113826e+00  2.24578850e+00  2.57076520e-02  1.18009230e+00
 -8.70629410e-01 -8.98262364e-01  1.71176091e-01  5.17226313e-01
 -4.15093277e-01 -1.12756693e+00 -1.26022197e+00 -2.42832357e+00
 -2.98427226e+00 -2.80530871e+00 -1.37734562e-01  2.13591623e+00
  1.02930161e+00  3.76476895e-01 -8.81806662e-01 -2.21959497e+00
 -1.20157021e+00 -4.24297768e-01 -1.19318724e+00 -2.78422688e-01
  5.85625455e-01 -4.98347878e-01 -7.99076377e-01  3.83684382e+00
  1.95958826e+00  1.49030888e+00 -1.18666911e+00 -7.97797187e-01
 -7.19246890e-01 -6.70990002e-02 -3.64050569e-01 -7.18372951e-02
 -3.08855729e-02 -1.65090959e+00 -2.89500032e+00 -2.73880831e+00
 -1.79434187e+00 -2.98732617e+00  1.35425881e+00  1.66003563e+00
  9.78248177e-01  1.50371153e+00  1.57858162e+00 -1.18567296e+00
 -1.49296505e+00 -3.95095966e-01 -1.72181662e+00 -1.19117382e+00
 -1.34716101e+00 -1.10511875e+00  2.62449220e-01  2.02255978e+00
  1.74268494e-01 -6.65296003e-02 -6.17545713e-01  4.89226058e-01
  6.44103589e-01 -4.92096886e-01  5.17398204e-01 -6.33384098e-01
 -3.72973528e-01 -1.99918560e+00 -2.94096290e+00 -1.07651944e+00
 -1.42532132e+00 -3.70918461e-01  2.30151788e+00  2.23475246e+00
  3.70964300e+00  1.96714073e+00  2.48373268e+00 -5.22089904e-02
 -4.75790362e-01 -2.36444759e+00 -1.38068112e+00 -2.02844082e+00
 -1.74495825e+00 -1.98290703e+00 -2.75896548e+00  1.87664632e+00
  2.54236079e+00  8.29414637e-01 -1.61169351e+00 -8.26477018e-01
 -2.04170374e-04  3.65381937e-01 -1.58298438e-01  7.05806642e-01
 -3.77912237e-02  2.07599351e+00 -1.90674737e+00 -1.04509488e+00
 -6.16071438e+00 -1.36987118e+00  1.94267499e+00  1.04436396e+00
 -5.52210558e-01  2.40114055e+00  2.65423963e+00  1.21827339e+00
  4.92167142e-01 -1.38010177e+00  1.47973430e+00 -1.08115798e+00
 -2.21063750e+00 -1.18158280e-01  9.65358426e-01 -4.12991552e-01
  1.43702698e-01 -2.91483601e-01  6.56303527e-01  5.40907888e-01
 -4.43923787e-01 -2.61237187e-01 -1.19928724e+00  2.34959078e-02
 -4.05381187e-01 -4.93019655e-01  4.18648275e-01 -2.19603953e+00
 -1.49285521e+00 -2.03338651e+00  7.67495091e-02  1.43549732e+00
  1.75640541e+00 -5.38596867e-02  1.45539395e+00  1.07935244e+00
  1.29774669e+00 -3.10765423e-01  4.88012696e-01  6.05313451e-01
  1.17273863e+00  1.95239857e+00 -1.12560468e+00  1.06215622e+00
  7.43950071e-01 -3.03291317e-01 -1.10083436e-01 -1.30496398e+00
  1.33836075e+00  1.14465581e+00 -1.11640395e-01  2.02782272e+00
 -1.74637315e+00  5.22959535e-02 -1.56119361e+00 -5.55922769e-02
 -1.17610853e+00 -7.10740549e-01  1.33989446e-01 -3.73936052e-01
  2.02820021e+00  3.84393866e-01  8.16101793e-01  1.19472208e+00
 -1.01853300e-01  2.05887656e+00 -1.44537565e+00 -1.62430654e-01
  3.83516511e-01  8.64488864e-01  9.48814875e-01 -1.14315544e+00
  8.73128620e-01  1.77420849e-01 -8.53202243e-01  1.61078272e-01
  1.45194514e+00  1.23316412e+00  3.88409238e-01  1.73532718e+00
 -1.52396708e+00 -3.98508025e-01  8.73983427e-01 -2.61626265e-02
 -1.05250965e+00  3.97835961e-01  4.91609694e-01  5.76049695e-01
  2.51331807e-01  1.24891637e+00  5.95055594e-01  1.45692255e+00
  1.59055960e-01 -2.91949346e-01  1.11838659e+00 -7.72210913e-02
  1.70990318e+00  2.87773668e+00 -1.37540905e+00 -3.18428641e+00
  8.34939163e-01  5.81599296e-01 -1.37631150e-01  8.11666419e-01
 -2.08060346e+00 -4.34906137e-01  1.02853204e+00 -1.67367652e+00
 -2.28654255e+00 -1.13625524e+00  1.09568933e-01 -1.31287032e+00
  4.49696701e-01 -2.03768886e+00 -1.13580208e+00  1.50910821e-01
 -3.33951984e-01  4.51695045e-01  2.27591154e+00 -5.37215341e-01
  4.59277795e-01 -7.11963876e-01 -1.11809803e+00 -7.47938544e-01
 -5.65191045e-01 -8.55201441e-01 -2.73967148e+00 -1.86951118e+00
 -2.72051508e+00 -1.13323699e-01 -2.72762093e-02 -1.05673500e+00
 -1.60909081e-02 -2.56849674e-01  1.37238672e+00  2.34625179e+00
  5.35654338e-01 -4.40491808e-02  1.37361042e+00 -4.56930604e-01
  1.42432088e-01 -1.28953349e+00  1.05580410e+00  2.85832338e-01
 -1.27952577e+00  8.46896683e-01  4.65438423e-01  2.50261399e+00
 -3.93421373e-01 -1.53603584e+00 -8.10224115e-01 -8.86529324e-01
 -8.06395836e-01  4.76092925e-02 -2.58374385e+00 -1.25384689e+00
 -2.41828928e+00 -1.74059421e+00 -1.61683618e+00  9.35234877e-01
  1.01456992e-01 -2.17764429e-01 -6.21838504e-01 -3.33432893e-01
 -1.99872657e+00 -9.13262713e-01 -4.79755971e-01 -3.87486279e-01
 -4.04709304e-01 -4.17145573e-02  1.37526365e+00  1.18479283e+00
  1.42560579e+00  1.46354355e+00  6.91006772e-01 -1.30891760e+00
 -1.75612836e+00 -1.86308413e+00 -1.46705446e+00 -1.40951268e-01
 -6.58212895e-01 -8.06112346e-01 -8.78829600e-01 -3.47485930e+00
 -2.41604605e+00 -1.05987478e+00 -2.92596468e-02  2.45379943e-01
  4.17867416e-01 -3.39302084e-01  2.07247372e-01 -8.94748930e-01
 -6.60742360e-01 -9.47445538e-01 -2.80320497e-01 -1.90102663e-01
 -1.11038691e+00  2.25491703e-01  2.99609475e-01 -1.34917350e-01
  2.82960739e-01 -3.35896335e-01 -1.09173056e+00  1.65930166e-01
 -1.59039351e+00  1.31896980e-01 -9.89758321e-02 -1.00600096e+00
  5.18030155e-01 -2.39838887e+00 -2.57287570e+00  2.21073879e-01
 -1.29791800e-02  3.63464993e-01  1.01271046e+00 -6.22956814e-01
  1.75610038e+00  7.75576179e-01 -5.42235523e-02 -2.37318494e+00
  8.01642367e-01  2.51967673e+00 -4.13786313e-01 -3.21837479e-01
 -1.45846709e+00 -1.42597458e-01 -4.29118581e-01  2.42343281e-01
 -1.15083558e+00 -7.57413146e-01 -9.66851161e-01  5.52109366e-01
  1.28986262e+00 -1.36629577e+00 -1.23275296e+00 -5.55113831e-01
 -5.00471886e-01 -1.15465292e+00 -9.50868546e-01 -2.72472604e+00
 -1.74484951e+00 -1.48071632e+00 -3.80608267e-01 -4.39107216e-01
  1.48075244e-02 -1.18441791e+00 -6.06214169e-02  7.23150984e-01
 -9.97946194e-01 -7.65639293e-03 -5.16714885e-01 -1.20567475e+00
  1.22761789e+00 -1.33558820e+00 -1.83507483e-01 -1.08290838e+00
 -5.66061895e-03 -1.87009282e+00 -1.81040147e+00 -1.60756326e+00
 -9.45775065e-01 -2.91152111e-01  6.57522668e-02  2.93769037e-01
 -2.16092062e-01 -2.04131756e+00 -1.33292940e+00 -1.61075407e+00
  1.87628614e-01 -2.99796188e-01 -1.53700391e+00 -2.69150933e+00
 -2.28362642e-01 -1.23911519e+00  1.68432916e-01  1.36769448e+00
 -2.69724578e+00 -6.75713802e-01  8.85840034e-01  1.17792949e+00
 -1.99184540e-01  3.13563092e-01  5.49942925e-01  1.91970966e+00
 -6.84090991e-01  1.27045781e+00  1.22803953e+00 -2.93348412e-02
 -8.81741552e-01 -3.28513475e-01 -8.24410385e-01 -1.21109139e-02
 -2.19025050e+00 -2.35436201e+00 -1.28100137e+00  3.25011031e-01
 -6.95800624e-01 -1.32163869e+00 -1.12236645e+00  7.15023908e-01
  1.79945771e+00  9.70771623e-01 -1.39958215e+00 -1.71526659e+00
 -1.55637374e+00  9.46740035e-01 -1.34484504e+00  4.33687436e-01
 -2.38284245e+00  2.18079972e+00 -2.13939124e-01 -5.39828766e-01
 -1.39365048e+00  1.57365605e+00  5.56490098e-01  8.87111783e-01
 -9.24502080e-01  7.52664174e-01 -1.43268035e+00  4.10649477e-01
 -2.05190726e+00 -9.87917303e-01  3.47931089e-01 -1.38998598e+00
  1.49222159e-01  6.52388141e-01 -6.87974194e-01 -4.46823210e-01
  2.17813526e-01  2.37193704e-01 -1.44237980e+00  9.57755151e-01
 -1.66668311e+00 -2.28802413e+00 -8.10400037e-01 -4.90812511e-01
  7.06637724e-01  1.37904384e-01  4.07910942e-01 -5.37879711e-01
  1.76965206e+00  2.32322519e-02  6.69278660e-01 -8.63020793e-01
  8.62858884e-01 -1.22208269e+00 -7.62584842e-01 -2.57030547e-01
 -2.99687717e-01 -1.16516580e+00 -1.41192535e+00 -2.02502218e+00
  5.89048799e-01  6.70956535e-02  4.92994179e-01 -6.94069309e-02
 -1.38123123e+00  2.46227863e+00  3.48113841e-01 -2.99373437e+00
 -7.83913295e-02 -1.41277424e+00 -7.59926740e-01  4.53450909e-01
 -9.82887143e-01 -5.01163751e-01 -3.79026760e-01 -9.33116021e-01
  1.05635421e-01 -4.09828934e-01 -6.70395479e-01  7.21101106e-02
 -2.66527536e-02 -2.48788453e+00  6.91905242e-01 -6.50328996e-02
 -3.97692695e-01 -7.64186276e-01 -3.78472445e-01 -8.72705541e-01
  1.84980934e-02  9.98043455e-01 -5.75338358e-01  2.91618169e-01
 -5.80448538e-01 -3.98872453e-02 -2.01424497e+00 -9.63072788e-02
 -5.34544481e-01  2.00197749e-01 -1.00489866e+00 -1.39006104e+00
  3.66698483e-01 -8.43702348e-01 -9.88569214e-01  1.09408352e+00
 -1.42582060e+00 -1.24027311e+00 -1.23638273e+00 -2.15091251e+00
  7.73755416e-01 -8.44925278e-01 -1.17880633e+00 -5.42911792e-01
  7.81087188e-01 -1.00642261e-01  4.47778291e-01 -1.44843584e+00
 -2.03827300e+00  6.18551412e-01 -7.63283424e-01  9.67678795e-01
  2.54208903e+00  1.93172604e+00  2.46161103e+00  3.03099571e-02
  2.26960220e+00  2.04679406e-01  1.51189358e+00  4.49740675e-01
 -7.20340549e-01 -8.58388993e-01  2.40745944e-02 -4.12355701e-01
  1.25593694e+00 -9.76797537e-03 -4.90378375e-01  7.39602652e-01
 -1.03648952e+00 -6.64353022e-01 -1.57907474e-01  1.77449604e+00
  1.74329278e+00  6.97573550e-01 -1.91889048e-01  5.40864134e-01
 -2.19737323e+00  2.02086228e-01  4.39154642e-01 -3.00715162e+00
 -8.77449521e-01  1.64078974e+00 -5.17492200e-01  6.10870272e-01
  7.72311520e-01 -4.72352576e-01  5.04154104e-01 -1.35359227e+00
  1.75370440e+00  2.58675790e-01  8.14556504e-01  6.71547467e-01
 -8.28758582e-01  5.78985333e-01 -2.63682297e-02 -3.97049059e-01
 -4.20108587e-01 -2.24509819e+00  4.43530867e-01 -1.13908007e+00
 -1.00316449e+00 -6.33717758e-01  2.50052881e-01 -3.92197342e-01
  1.20544544e+00  8.53468958e-01 -1.86199606e+00  7.59387965e-01]","[ 9.40172673e-01 -1.28401312e-01 -1.49003660e+00  7.47315061e-01
 -6.14739701e-01  1.33783385e+00  6.99134086e-01 -6.04207834e-01
 -1.65553210e+00  6.13415910e-01 -1.71706858e+00  7.13316393e-01
 -3.71309395e-01  5.21040656e-01 -5.82347266e-01 -8.11560452e-01
 -1.36120004e-01 -5.87039603e-01  1.05491675e-01  1.59634028e-01
  1.24850080e+00  5.14598937e-01 -1.34341744e+00  3.17470317e-01
  1.21786151e-01  4.30421192e-01  6.60960559e-02  9.20484243e-01
  3.04384040e-01  9.46276708e-01  4.22685316e+00 -1.01001802e+00
 -1.75039096e+00 -2.62605104e-01 -3.23509057e-01 -9.31346107e-01
 -6.84152880e-01  4.65135480e-01 -8.86471181e-02  5.54458609e-01
  1.40726624e+00 -4.34962199e-01  1.38596285e+00 -7.18805601e-01
  1.01991403e+00 -1.00059697e+00  1.09052742e+00 -4.25463909e-01
  1.04815524e+00 -7.41496328e-01  5.27993061e-01 -7.43945841e-02
 -6.11372854e-01 -6.54087264e-01 -6.07464143e-01  5.19437556e-01
 -1.55187981e+00 -2.48939087e-01  6.55509227e-01  3.79003042e-01
  5.82507357e-01  1.63957317e+00  2.40562359e+00  2.21791495e-01
 -1.19516756e+00 -5.84994045e-01 -1.16312225e+00 -7.92421564e-01
  1.36000589e+00  2.98847034e-01  1.88883715e-01 -9.83307400e-01
  6.37828535e-02  3.46930335e-01  2.83560417e-01 -6.35180024e-01
  4.32201339e-02  3.22209099e-01 -1.11182837e+00 -1.38771653e-01
  3.46396457e-01  5.93281586e-01  8.21510643e-01 -9.05840945e-02
 -1.95344036e-01 -7.89666971e-02  4.00068566e-01  7.02716588e-01
  3.89651572e-02 -1.12190175e+00 -1.00629549e+00  1.86526235e+00
  4.89460695e-01  5.22371315e-01 -1.62544130e+00  6.69373538e-01
  1.45552355e-01  5.30076801e-01  6.06283717e-01 -7.52459506e-01
  1.77915199e+00 -2.62781052e-01  9.89312951e-01  3.95122689e-01
  1.55591118e+00 -2.20111572e+00  6.02088917e-02  7.20031580e-01
 -1.13032619e+00  4.52388049e-01 -3.06008065e-01 -2.88674391e-01
 -1.02614885e+00 -2.40941421e-01  4.68215401e-02 -8.31154308e-01
 -8.03604538e-01 -4.02661163e-01  1.18279320e-01  6.68206768e-02
  1.54978986e+00 -1.61153222e-01  1.66388368e-01 -3.12522383e-01
 -1.58590943e+00  6.70631984e-01  2.23534874e-01 -1.24726853e+00
 -1.40401129e+00  2.89991066e-01  1.99090928e+00 -4.48012520e-01
  3.06079578e+00  1.79215811e+00  1.48996375e+00  2.48120005e+00
 -1.55021279e+00 -4.86638927e-01  6.13500947e-01 -2.34718274e-01
 -3.35337448e-01 -1.88305367e+00 -8.99390888e-01  8.66662581e-01
  4.95967322e-01 -1.81747987e+00  8.35165126e-03  5.72879696e-01
 -2.90993552e-01 -1.07627132e+00  7.25161499e-01 -1.77159305e-01
  8.30237918e-01 -2.80987349e+00 -1.76689421e+00  1.32043277e-01
 -1.16555258e-01  1.37352404e+00  2.26749867e-01 -4.38984855e-01
 -4.92788709e-01  1.23575171e+00  8.44941793e-01  2.36870241e+00
 -7.83600055e-01  8.03178823e-01  3.80290763e-01  1.11213023e+00
  1.95279861e+00  1.02367867e+00 -4.48002056e-01 -8.89898659e-02
 -1.08686272e+00 -5.37719947e-01  4.24410530e-01 -2.61140680e-01
 -1.09954960e+00 -4.48410667e-01 -3.38931629e+00 -2.95979858e+00
 -2.83011117e+00 -3.13460374e+00 -1.53788173e+00 -1.87007838e+00
 -1.78306152e+00 -1.74529134e+00 -4.07897555e+00 -2.05736450e+00
  6.20046026e-02  1.38282191e-01  1.94818077e+00  3.25630985e+00
  8.63283616e-01  3.78361722e-01 -1.16020639e-01  4.97698947e-01
 -3.19302641e-01  5.88625950e-01  2.25440028e-01 -1.58155435e-01
  9.66037460e-01  5.93766434e-01  1.37824947e+00 -3.99680705e-02
 -1.55073672e+00 -1.34508826e+00 -3.83625040e+00 -6.03245915e-01
 -2.77404992e+00 -1.82059429e+00 -3.32086023e+00 -2.01941133e+00
 -1.76341979e+00 -2.96860857e+00 -2.15986434e+00 -2.18681483e+00
 -3.43066299e+00 -1.32864816e+00 -3.36580857e-01  7.53086469e-01
 -3.92971322e-01  2.17262442e+00 -1.38778626e+00 -2.20653001e-01
  2.53784023e-01 -2.11457737e-02  1.75252407e+00  2.11580667e+00
 -9.45296613e-01 -1.01533813e+00  5.39770418e-01 -2.78836099e-02
 -5.05083528e-01 -1.22014534e+00  1.68891088e-01 -2.41846530e+00
 -1.59236358e+00 -1.95136287e-01 -2.07193039e+00 -1.28935828e+00
 -4.26854951e+00 -2.64286345e+00 -2.60725163e+00 -9.43271951e-01
 -3.28794567e-01  2.43526674e-01 -7.70829159e-01 -1.12615407e+00
 -1.27941394e+00  1.81247772e+00 -1.55384817e+00  1.58678651e+00
  1.39162025e+00 -1.89469017e+00 -8.72929521e-01  1.86453938e-01
 -2.27838610e+00 -1.13748264e+00 -8.12543365e-01 -1.25640916e+00
 -1.87465758e-01 -1.78465109e+00 -3.09883831e+00 -2.70917884e+00
 -1.83247558e+00 -2.20645206e+00 -3.04532954e+00 -2.77502707e+00
  1.55207351e-01  6.88175226e-02 -1.39295870e+00 -8.70727438e-01
  1.24149418e+00  7.54634043e-01 -1.71234272e+00  5.08371102e-01
  2.80319004e-01  2.04090340e+00  1.53501953e+00  7.45870214e-02
  1.02629643e+00 -5.00383083e-02  4.44544946e-01  3.14911074e-01
  6.22521019e-01 -3.77388810e-01 -2.50386468e+00 -2.04461006e+00
 -1.65927485e+00 -1.18278182e+00 -1.69687562e+00 -2.06065276e+00
 -2.04850244e-01 -1.77395311e+00 -4.24570475e+00 -7.42025427e-01
 -2.39545729e+00  6.87302510e-01  2.03257106e+00 -6.63739724e-01
 -1.11914279e-01  3.94997978e-01  3.40388515e-02 -2.04807263e+00
  5.99012470e-01 -1.92249677e+00  2.27084611e+00  1.32845904e+00
  1.35599277e+00  1.08703910e+00  1.45120996e+00 -1.07532782e+00
  1.28987042e-01  1.99704234e-01 -3.10896455e+00 -1.46292924e+00
 -2.51557636e-01  1.11088484e+00  1.48483933e+00 -2.37130238e+00
  9.28408206e-01 -2.55348062e+00 -2.10098700e+00 -3.82742549e-01
  3.67223891e-01 -2.33079451e+00 -2.52545845e+00  1.36370626e+00
 -2.03639005e+00 -3.15032469e+00 -2.35591679e+00 -1.57593866e+00
 -2.12127785e+00 -1.32925254e+00 -7.78899146e-01 -9.49340108e-03
  6.04223598e-01 -6.32780475e-01  7.57778338e-01 -5.78165056e-01
  3.18046615e-01 -2.42449360e+00  3.20695884e-01  1.72460055e+00
  2.03570967e+00  5.29791072e-01  2.72061151e+00  1.86539920e+00
  3.30611089e+00  2.70227637e+00  8.58800856e-01 -2.23862956e-01
 -3.75749486e-02 -2.54795358e+00 -2.30658011e+00 -1.83716107e+00
 -1.56317090e+00 -1.43498395e+00 -4.67068810e-01 -2.03774923e+00
 -1.37169855e+00 -8.00618967e-01  3.99421967e-01  1.72028489e-01
 -1.24173214e+00  1.42674953e+00 -1.77348560e+00  7.75487405e-02
  7.33987518e-01  6.77214626e-01  1.40678485e+00  6.82248428e-01
  2.13527460e+00  3.07800013e+00  2.15603532e+00  4.40145473e+00
  4.80715949e+00  5.08597818e-01 -2.51554219e+00  1.79334602e+00
 -6.90265263e-01  8.13277307e-01  5.57085283e-01 -2.13446616e-01
 -1.26220974e+00  1.76699335e+00 -3.00334897e-02  6.07681066e-01
  1.30068682e+00  1.40021878e+00 -1.07241782e-01  7.52330579e-02
  1.18527555e-01 -8.05855776e-02 -7.91259593e-01 -4.71217861e-01
  2.37289353e+00  2.95275521e+00  1.03472322e+00  2.91337051e+00
 -3.62847285e-01  2.99044967e+00  1.67794780e+00  3.80682311e+00
  2.65638857e+00  7.40315106e-01  2.96102376e-01 -3.44684723e-02
  1.56801883e+00  1.00358562e+00  5.79235132e-01 -1.61109217e-02
  1.10443081e+00  1.00505935e+00  2.17424753e+00  2.29847211e+00
  1.08847809e+00  1.35816379e+00  1.45811411e+00  2.34116505e-01
 -7.06253696e-01  2.28780610e+00 -4.93599850e-01 -3.39262293e-01
 -5.40444626e-01  1.53026758e+00  1.01319458e+00  2.18510308e+00
 -5.28344812e-01  2.71560820e+00  5.75001004e-01  2.88371402e-02
  2.10532112e+00  7.03946369e-01  7.60043737e-01  1.06003976e+00
  1.21069859e+00  1.04551591e+00  1.96383576e-01  6.64863062e-01
 -1.33209067e+00  1.41296053e+00  1.23163346e+00  8.15032737e-01
  2.61815198e+00  1.22440432e+00 -2.76896894e-01  6.05420631e-02
 -7.03787004e-01  1.02836810e+00 -1.28677069e+00  2.28664536e-01
 -9.41235763e-01  1.61540003e+00  1.63773291e+00  4.46373630e-01
  2.94774774e+00  6.96583207e-01  5.45248731e-01  1.63637175e+00
  1.26768975e+00  1.86874981e+00  2.52467176e+00  2.36071807e+00
  8.97388507e-01  3.43305216e+00  2.08960156e+00  2.52094534e+00
  2.41715518e+00  2.08438782e+00  1.71708433e+00  1.28041804e+00
  3.08965853e-01  1.79614169e+00  5.80201298e-01  2.45192273e+00
 -3.90877710e-01 -1.95327349e-01 -1.75235998e-01  9.74392270e-01
  9.28627768e-01 -8.63000272e-01  1.94340017e+00  1.85216341e+00
  1.63457339e-01  7.36124068e-01 -9.54744968e-01 -7.01908314e-02
 -1.17125685e+00 -7.33681920e-01  1.83506985e+00  1.96009898e+00
  5.50154002e-01  2.52035680e+00  1.82964627e+00  5.39288389e-01
  6.85866975e-01  2.35573887e+00  1.46275739e+00  1.68833064e+00
  8.52225677e-01  1.49440551e+00 -2.85035708e-01 -8.17192795e-01
 -2.93761670e-01  6.38753676e-01 -5.67322495e-01  3.40624455e-01
  2.75044621e+00 -9.01839678e-01  1.73794234e+00  1.67096335e+00
  3.36640222e-01  2.68441048e-01 -1.27389780e+00  5.39436638e-01
  3.20219764e+00  8.09235429e-01  4.78167945e-01  1.79189317e+00
  1.69273623e+00  3.26603602e-01  1.61629118e+00 -9.00679914e-01
  4.47508198e-01  4.22134863e-01 -1.76708569e+00 -6.05689445e-01
  3.22070561e-01  1.10140579e+00  7.08386563e-01 -1.09567620e+00
 -1.67088093e+00 -1.89269235e-01 -1.58478189e+00 -3.37138300e-01
 -6.22868878e-01 -9.36888096e-02  7.07638934e-01  7.05658534e-01
 -1.09645582e+00 -5.84016068e-01  3.24513932e-01  1.69773972e+00
 -3.61557609e-01 -5.68942842e-02  1.00862842e+00  3.58644492e+00
  1.55100079e+00 -2.74514739e-02  1.10626298e-01 -6.81854898e-01
  1.20592995e-01 -2.10072071e+00  1.45320580e-02 -1.20011492e+00
 -7.32229324e-01  1.01214856e+00  8.83521903e-01 -5.65697356e-01
  5.61665783e-01  3.26773724e-02  5.29930212e-01  1.18728413e+00
 -3.58627793e-01 -3.09129602e-01 -1.07121324e+00 -1.25816300e+00
 -4.78112964e-01  1.26252853e+00  1.33790753e+00  1.14718444e+00
  1.88268582e+00 -1.64744536e-01 -1.68420798e-01 -6.45576398e-01
  2.30256357e+00 -3.84324259e-01  4.48411725e-01  3.73716570e-01
 -2.69823915e-02 -9.74952754e-01 -1.90943830e+00 -1.98424094e+00
 -8.19303549e-01 -6.04346273e-01 -9.25763055e-02 -2.43536169e-01
 -1.28918192e+00 -4.71602793e-01 -8.62969946e-01 -2.13223555e+00
 -1.05931321e+00  4.40372386e-01  2.76525918e-01 -2.63825923e+00
 -7.17885564e-01 -5.61171927e-01 -3.88721567e-01 -1.93272253e-01
  2.38739304e+00 -1.94817194e-01 -1.11783717e-03 -8.61663648e-01
 -1.65525495e+00 -5.17632898e-01  8.44419630e-02 -4.12420770e-01
 -4.20661303e+00 -1.27275767e+00 -6.81795794e-01 -1.60988197e+00
 -9.87565314e-01 -1.59813054e+00  1.31847747e+00  7.64967995e-01
  2.19479453e+00  8.95974157e-01  7.78105798e-01 -1.90508393e+00
  1.43553453e+00  4.28917889e-02 -2.56817277e+00 -1.77329454e+00
 -2.44740891e+00 -2.16210203e+00  9.66304027e-01 -2.88018836e-01
 -2.61369181e+00  1.05143655e+00 -1.36441727e+00 -2.43082133e-01
 -1.29557884e-01 -1.03468021e+00 -5.00895789e-01  5.52532753e-01
 -1.77235607e+00  7.75980889e-01 -1.01399198e+00 -6.89967183e-01
  3.75354728e-01  3.31049152e-02 -1.52578472e+00 -5.27461265e-01
 -3.98636994e-01 -1.00860270e+00 -3.42123993e+00 -8.92129873e-01
 -1.97705609e-02 -5.70432827e-01 -4.43243989e-01 -2.11789146e+00
 -1.05413814e+00 -3.05695916e+00 -2.98427267e+00 -8.13502845e-01
 -1.62369315e+00 -2.62756602e+00 -2.09845745e+00 -2.71101578e+00
 -1.28139790e+00 -2.00373281e+00  3.04860415e+00  9.46374742e-01
  1.44728954e-01  1.17867351e+00 -2.17234545e+00 -3.79023009e-01
  4.49004722e-02 -7.31546982e-01  3.92150877e-01  1.12921666e+00
  1.21041932e+00 -5.16610011e-01  1.08903117e-01 -6.13648138e-01
 -5.41729187e-01  1.10213919e+00 -4.20146131e-01 -8.86392433e-01
  9.93916625e-02 -1.30045112e+00 -2.84940426e+00 -1.18201242e+00
 -2.99437321e-01 -1.09166962e+00 -3.71425535e-03  4.50652307e-01
 -6.85659890e-01 -9.40991007e-01 -1.52208393e+00 -1.11630441e+00
 -1.49809569e+00  8.81379528e-01 -4.48231049e-01 -1.25672006e+00
  5.48689368e-01  2.33644003e+00  2.75998493e-01  2.17478002e-01
 -1.42148397e+00  2.93166481e-01 -9.25917362e-01  1.74703048e+00
  3.92360806e-01  1.56408164e+00 -3.35481738e-01 -1.20617170e+00
 -1.98787068e+00 -2.22115043e+00 -3.37880549e+00 -2.69203991e-01
 -2.45094109e+00 -3.49138027e+00 -1.08954621e+00 -5.26853225e-01
 -1.37599019e+00 -3.09714368e+00 -3.29523169e+00 -2.71842043e+00
 -1.92444108e+00 -2.12239304e+00 -4.10637742e-01  5.37352317e-02
 -2.06256680e-01 -1.01277223e+00  1.02614815e+00  1.44473197e+00
  1.58846092e-02 -1.38052137e+00  5.89214684e-01  2.55165349e+00
  4.25132832e-02  1.79170146e+00 -2.16504141e+00 -2.11065353e-01
 -5.49125293e-01 -1.79975222e+00 -3.58349252e+00 -1.72852615e+00
 -1.43674023e+00 -1.13120250e+00 -3.44512761e+00 -1.83091213e+00
 -2.48431777e+00 -1.69221295e+00 -1.23236553e+00 -1.94145541e+00
 -1.68017823e+00 -2.33916731e-01 -2.72274376e-01 -4.49225383e-01
 -6.04356435e-01 -1.00350005e+00  2.98481579e-01  1.46871112e+00
  3.09113317e-01  1.72926216e+00 -6.26327145e-01 -1.20801872e+00
  1.30115522e-02 -4.54658201e-01 -7.99046658e-01  2.13044428e+00
 -1.77505693e-01  1.62362404e+00 -9.84445847e-01 -6.18041938e-01
 -1.97047167e+00 -2.31395681e+00  9.12499405e-01  7.07800125e-01
 -8.07290687e-01 -7.99215600e-02 -1.15902356e+00 -4.87991863e-01
  3.71781790e-01 -2.89768144e-01 -7.18000486e-02  1.43750541e+00
 -7.89139654e-01 -7.13657978e-01  4.72657918e-01 -6.74473879e-01]","[-2.76231826e-02  3.43200496e-01  3.59927399e-01  9.63007119e-01
 -2.35483399e-01  4.62541597e-01  5.25597237e-01  1.17270816e+00
  2.25587813e-01  1.68675431e-01  7.63485240e-01 -7.64040654e-02
 -8.31344557e-01 -1.58558890e+00  3.64336500e-01 -8.29567277e-03
 -7.41393888e-01 -9.64876847e-02  5.35122744e-01  5.19078114e-01
 -1.07110133e+00  7.52221685e-01  1.31103642e+00  8.51114016e-01
 -1.82493945e-01  3.66050192e-01  2.95572799e-02 -5.64979887e-01
 -1.27231586e+00 -4.68462370e-02 -1.56242114e+00  8.34258143e-01
 -1.22779960e-01 -1.13029682e+00  1.18059204e+00 -1.97308637e-01
 -7.60137496e-01  1.74241735e+00  2.25369472e+00  4.75935496e-03
 -5.04218962e-01  4.82816688e-01  5.34917450e-01 -6.76133169e-01
 -1.96060643e-01  6.78538443e-02  2.73111892e+00  1.17096116e+00
 -1.73447998e-01 -2.62469749e-01  2.56685874e-01 -3.31506030e-02
 -4.94896113e-01  1.34891325e+00 -8.84696995e-01 -8.54858705e-01
 -8.58721943e-02 -8.49426407e-01  2.79239794e-01  7.58259764e-01
  1.30287513e-01 -2.82281971e-01  1.53386497e+00  8.76201568e-01
 -3.63529314e-01  1.35783128e+00 -6.65922997e-01  5.40649347e-02
  1.64654016e+00  6.22380837e-01  3.21871126e-02 -7.25603685e-02
 -1.30268911e+00 -2.16367182e-01  6.99871550e-01  1.72506191e+00
 -4.12271713e-01  3.30361396e-01  4.54330741e-01 -4.42487615e-01
 -1.01965685e+00 -9.54536184e-01  1.08663860e+00  4.76787514e-01
 -5.10821972e-02 -1.27336849e+00  6.23035682e-01  1.11529214e+00
 -2.55093493e+00  9.34480214e-02 -8.75576834e-01  1.74947716e+00
 -1.62764278e-01 -1.71191230e-01  2.63223845e-01  6.40170821e-01
 -9.49009833e-01 -1.63099130e+00 -1.33140607e+00 -1.80313640e-01
 -1.23201557e+00 -2.75584076e-01  1.53614321e-01  3.66031424e-01
 -1.49221782e+00 -1.11297064e+00 -5.81285260e-01 -6.01154384e-02
  3.93394893e-01  3.46452253e-01  3.10191734e-01 -1.27941359e+00
 -1.45387741e+00  4.13889018e-01  4.30974206e-01  9.53502837e-01
 -7.74424041e-02 -9.98816049e-01 -4.50380505e-01  3.47407102e-01
 -4.16576980e-01 -1.10718805e+00 -2.70411696e-01  1.46752304e+00
 -2.14366010e+00 -3.26233872e-01  1.71000462e-01  2.62345866e+00
  5.02720570e-01 -1.29014410e+00  5.68088972e-01 -5.57525625e-02
 -2.08647728e+00  1.08549908e+00  3.63969663e-01  1.47826132e-01
 -4.04213330e-01 -6.42961460e-01 -6.11684261e-01  1.22673735e+00
 -2.43793777e-02 -1.37675237e+00 -5.74410181e-01 -6.37872015e-01
  1.45540484e+00  6.36673666e-01  1.26090824e+00 -8.21244770e-01
  6.56719684e-01 -8.70761522e-01 -9.02337049e-01  5.90078857e-01
 -9.65478121e-01 -4.41726047e-01  5.61096703e-01 -3.83666460e-01
  1.77462605e+00  1.20751019e+00  6.91675211e-01  6.60408527e-01
 -1.76780954e-01 -1.33694305e+00  1.33574140e+00 -2.17600423e-01
  9.12510581e-01 -4.67856311e-01  3.25643465e-01 -1.77697150e-01
 -1.00624629e-01  7.74263104e-01  4.43721277e-01  1.19022175e+00
  4.63129287e-01 -2.85993055e-01 -1.47524501e+00  7.19339218e-01
  1.45674735e+00 -1.79676337e-01  5.24554788e-01 -1.37772733e+00
 -4.90225826e-01 -1.05411795e+00  2.17270901e+00 -8.99823283e-01
  3.90373036e-01 -2.61559104e-01  9.45461288e-01  7.26302459e-01
  4.04891734e-01  9.18787648e-01 -2.88338232e+00  1.16669094e+00
 -7.30992334e-01 -3.87029898e-01 -1.87623499e-01 -9.30889038e-01
 -8.36602814e-01 -1.03608588e+00 -1.37735358e+00 -1.83107698e-01
  1.17468771e+00  4.82818227e-01  4.04093729e-01 -2.88223985e-01
 -3.35392720e-01  1.64513251e-01 -3.98229686e-01 -1.03485989e+00
 -4.22408232e-01 -9.83523148e-01 -5.80106068e-01  2.94127580e-01
  1.34777120e+00 -7.19529940e-01  5.18973590e-01  8.70283063e-01
  7.36400342e-01  1.35650177e+00 -7.29930838e-01  1.35515491e+00
 -6.66798891e-02 -1.62237954e+00  1.40363417e-01  1.23037818e+00
 -4.43474653e-01 -1.12775405e+00  2.01734553e+00  8.55796269e-01
  6.86643234e-01  9.65318998e-02  1.02446866e+00  3.15412766e-01
  1.16768667e+00 -3.72541824e-01  1.63190980e-01  7.43142250e-01
 -1.21051138e+00 -2.53210527e-01  1.05776048e+00 -2.07255797e-01
  2.28581184e-01  1.92135908e-01  3.20916865e-01  8.71845333e-03
  1.17146029e+00  9.76817506e-01 -9.40795855e-02 -6.04578580e-01
  1.30324608e+00  1.12817641e+00  1.22422278e+00  9.70739860e-01
  3.94636358e-02 -1.43108216e+00 -4.81590710e-01 -5.94413113e-01
  6.53589770e-02  1.73804985e+00 -9.35623333e-03 -8.56953488e-01
  2.91815234e-03 -4.81266092e-01  1.06079609e+00  1.09293154e+00
  1.75459426e+00 -6.75084198e-01  9.90923226e-01  2.81372375e+00
  6.48759791e-01  8.58841715e-02  2.78650901e-01 -1.04675689e+00
  8.44415026e-01  2.31648753e-01  7.69766712e-01  7.14520332e-02
  4.19220612e-01 -6.48720509e-01 -8.01681611e-01  1.93870023e-01
 -1.17142552e+00  1.98879984e+00 -2.86851226e-01 -9.69710394e-02
 -1.54095371e+00 -6.50589932e-01 -5.31200725e-02  5.03977166e-01
  4.69924190e-01 -1.10622561e+00  1.03238914e+00 -1.54780609e+00
 -1.66090173e+00 -8.97249811e-02  2.34931118e+00  7.75538791e-01
  3.43933768e-01 -8.11567510e-01  5.16734922e-01 -2.14247377e+00
 -1.71850899e-01  1.21869640e+00 -5.42498503e-01 -2.24702559e-01
  4.22715660e-01 -3.05072486e-02  2.96626125e-01 -3.71423606e-01
  6.70514211e-01 -1.99100370e+00 -1.06129942e+00 -2.83976468e-01
  1.97774898e-01 -1.09490667e+00  7.41799233e-01 -6.44427668e-01
 -1.63149567e+00  2.26485135e+00 -6.25113514e-01 -1.50292341e-01
  5.59197037e-01  1.10516556e+00  1.68335670e-01  3.55813258e-01
  7.87488186e-01  1.88548364e-01  1.76776724e-01 -9.07618016e-01
 -2.59997315e-01  5.45172474e-01 -1.43310907e+00  9.86029519e-01
 -1.67889130e+00  1.15904732e+00 -1.18155817e+00  4.02290488e-02
 -6.07873658e-01  5.21939601e-01 -1.22138081e+00 -8.38722214e-01
  1.55214174e+00  2.55269254e-01 -6.03575137e-01  7.74720683e-01
 -1.30892637e-01 -1.11748916e+00 -6.50449789e-01  1.88365189e+00
 -1.04232471e-01 -4.02814046e-02 -7.91671246e-01 -3.67838273e-01
  9.39516484e-01  8.32778845e-01 -8.67558937e-01 -5.16254827e-01
  1.34758182e-01 -6.76061710e-01 -4.37876414e-01 -8.65292804e-01
 -5.09141168e-01 -1.02829173e-02  5.60710996e-02 -9.17960142e-01
 -1.84350397e+00  5.02187627e-01 -3.64939814e-01  1.60416364e-01
 -3.17627917e-01 -2.72218630e+00  2.84745585e-01 -5.90314256e-02
  3.21902675e-01 -5.34908576e-01  3.85786477e+00 -2.76427031e-01
 -5.76607956e-01  1.05464851e-01 -1.60272442e+00 -4.87450176e-01
  7.53361592e-01  1.12151363e+00 -8.65765058e-02  4.03042357e-01
  1.52037252e-01 -5.77756263e-01  1.23755236e+00  5.51739142e-01
 -8.53479748e-01  1.99988118e+00  2.00712891e+00 -6.09886291e-01
 -1.25987204e+00 -3.25648908e-01  1.71522236e+00 -2.33886734e+00
  1.86128641e+00  9.80662925e-02  7.18609570e-01  1.09915197e+00
  1.24978005e+00 -6.32905249e-01  1.49531974e+00  1.32678126e+00
  1.51250640e-01  5.07354216e-01  1.85984008e+00 -1.17191277e+00
 -1.87644109e+00  7.41020132e-01 -9.89291556e-01 -9.86687405e-02
  4.31238612e-01 -5.41750169e-01  6.40045074e-02  1.41334984e+00
 -4.10081817e-01  1.84573066e-01  8.45638446e-01  1.66866134e+00
 -2.32544976e-01 -2.06042297e+00  1.38228783e-01 -4.79791070e-01
  2.04609098e-01  5.49763485e-02  5.42423054e-01 -2.76343133e-01
  8.60021954e-01  2.14979913e+00  9.40483146e-01  2.43225076e-01
  4.09964634e-03 -1.40522536e+00 -8.23427393e-01 -8.38717182e-01
  1.45939748e+00  1.20337648e+00  3.55088101e-01 -1.28208968e+00
  4.40723591e-01  6.70897551e-01  2.63987118e-01 -1.89675542e+00
 -1.15276406e+00  2.77466446e-01  8.82435593e-01  7.97990693e-01
 -1.66499685e+00 -7.75583976e-01  9.82291161e-01 -2.02457140e-01
 -1.39364173e+00  1.46362991e+00 -7.67302685e-02  2.15740907e-01
  1.21793031e+00  8.41325293e-01  1.79861754e+00 -9.87520626e-01
  8.52386296e-01  3.87090135e-01 -1.43541050e+00 -6.25520738e-01
  1.14644941e+00  3.23705937e-02  3.93347228e-02  7.70264543e-01
 -3.06539651e-01 -2.56259412e+00  8.46196919e-01 -3.45956554e-01
 -1.41558667e-01  6.23467709e-01 -1.12885424e+00 -1.29327981e+00
  4.83882069e-01 -6.24099669e-01 -1.03132000e-01  5.92254769e-01
  6.81456827e-01  2.11380809e+00  3.89324847e-01 -1.61164463e+00
  1.01874838e+00  5.65564475e-01  7.47828990e-01  3.04849751e+00
 -9.24545282e-02 -5.07300729e-01 -1.32235374e+00  5.48290757e-01
 -7.20598176e-01 -1.36290360e+00  8.21297801e-01 -2.47420587e-01
 -5.02042466e-01  1.36104067e+00  1.54473281e+00  4.91469346e-01
  6.82502486e-02  4.64354819e-01 -5.43105154e-01 -1.23529117e+00
  6.67247379e-01  1.13636489e+00  8.62566855e-01  4.01263190e-01
 -8.57622337e-01  1.58993817e+00 -2.48332545e+00  9.48343120e-01
 -1.65151315e-01  1.01651738e+00  1.01644769e+00  1.34725255e-02
  2.32411812e+00  1.47784873e+00  2.01978921e+00 -1.71698453e+00
 -2.71259861e-01  2.05849651e+00 -1.12429942e-01  5.74098550e-01
  7.94892109e-01 -3.48893786e-01  2.29620190e+00  1.01998890e+00
  1.17990656e+00 -2.92887979e-01  3.70807025e-02  1.82440152e+00
  8.20369187e-01  3.17305578e-01 -1.86152753e+00 -1.71873823e+00
 -5.07590205e-01 -6.75460963e-01  6.09645469e-01  1.92446030e+00
  7.43880113e-01  6.71838860e-01  2.31108429e-01  1.30519984e+00
  8.79970310e-01  1.30858981e+00 -5.20430520e-01 -1.65897672e-01
  2.89095990e-01 -1.36380961e-01 -1.23016923e+00  8.82784082e-01
  7.74735788e-01 -6.67683725e-02 -5.52247122e-01 -6.30481374e-01
 -3.94913718e-01  1.47340520e+00 -1.78195161e+00  1.83071166e+00
 -4.10432865e-01 -1.34119153e+00  1.47642123e+00  9.65839210e-01
 -5.01746520e-02 -1.54166654e+00 -6.06512286e-02 -4.91165554e-02
 -8.70862295e-01 -1.02312534e+00  6.46216917e-01  3.49772433e-02
  8.07920713e-01  2.37294747e-01  1.25266388e+00  6.25344337e-01
 -9.33481072e-01  1.14593653e+00  1.07326481e+00 -7.84785336e-01
  7.49894806e-01 -9.03333505e-01 -2.01748650e+00  9.61549829e-01
 -2.85109896e-01 -1.05403996e+00  1.60598061e+00  1.55977313e+00
 -3.02633110e-01 -1.20754546e+00 -1.49342157e+00  7.38488419e-01
  1.10844134e-01 -1.53408713e+00 -4.31157079e-01  1.25555992e-01
 -2.46625335e+00 -1.23580825e+00  1.58369181e+00  4.68476124e-01
  6.74555612e-01  4.18996939e-01  1.10786616e-01  7.38036249e-01
  2.29906261e+00  5.66337184e-01 -3.00727239e-01 -1.33338737e-01
  2.32920602e+00  7.29251555e-01  5.29236061e-01  5.43708809e-01
  1.33048293e+00  6.91904827e-01  3.25970275e-01 -4.30546901e-01
  1.63831675e-01 -1.52556871e+00 -1.57514564e+00  4.38835866e-01
  9.85297991e-01  9.15851955e-01  3.72456452e-01 -2.88702855e-01
  1.13642632e+00 -1.65202505e+00  2.79467973e-01 -2.02855240e+00
  1.72556587e-01  4.67666295e-01  6.79319838e-01 -1.88401625e-01
 -1.09423031e+00 -6.98500253e-01 -1.70560403e+00 -2.66990336e-01
  5.39295790e-01  1.11545783e+00 -4.75484124e-01 -7.05150924e-01
 -3.32767757e-01  1.38682112e-01  3.77393583e-01  1.69170130e+00
 -9.76026691e-01 -5.41164564e-01 -1.14735862e+00  4.29113034e-01
  1.00380516e+00  5.19442308e-01 -1.04712138e+00  1.09092804e+00
  2.40688799e+00  1.43468918e+00 -8.34908587e-01  1.69130259e+00
  1.26875881e+00 -5.54278116e-01 -3.14364017e-01  6.92172778e-01
  1.36850168e-01 -1.46133436e+00 -8.70034644e-02 -1.13592885e+00
  1.10714305e+00  5.69667491e-02  1.07874176e+00  1.70517250e-01
 -6.11426361e-01  5.55339017e-01  1.64149878e+00  2.34984272e-03
 -1.25337433e-01  1.01400767e+00  9.63862288e-01  1.25300377e+00
  6.69917331e-01  1.14040190e-01 -2.82953790e-01  4.27539203e-01
  6.04768841e-01 -1.30620301e+00 -5.68490539e-01 -5.12685890e-01
 -9.82993501e-01  1.05292675e+00 -1.93772421e-02  1.05764145e-01
  2.26201829e-01 -6.32555323e-01 -2.58364079e-01 -1.50638514e-01
 -3.82309902e-01 -5.73263532e-01 -7.30129845e-01 -5.27057823e-01
 -6.37665950e-01 -1.53144276e+00  1.20110883e+00 -1.60531430e+00
 -8.01381013e-01  1.16277238e+00  3.76622005e-01  1.22025342e-01
 -2.69107550e+00 -8.75012081e-01  7.17814704e-01  5.65780793e-01
  1.11875072e+00 -8.21868480e-01  2.28916241e+00 -5.13084683e-02
 -1.93833737e+00  1.15310241e+00  6.79900475e-01  2.71660003e-01
  7.53518563e-01  1.28984553e+00 -1.62802401e+00  8.48917639e-01
 -2.37788631e-01  7.29132551e-01  6.00676456e-01  1.00154014e+00
 -6.68423562e-01  1.58792346e+00  5.42520794e-01  8.00327664e-02
 -2.10161862e+00  8.95722133e-01 -1.47494327e+00  6.87216984e-01
  1.62108688e+00  1.21316867e-02 -2.00110162e+00  1.00938356e+00
 -6.34837071e-01  2.48546967e+00 -5.80961236e-01  1.72478920e+00
 -7.35613000e-01  7.42724714e-01  7.70153538e-01  1.20539718e+00
 -1.30418223e+00 -1.07109992e+00  5.46845171e-01  7.09662499e-01
  1.33680315e+00  1.29233894e+00  5.83570830e-01  1.67741384e-01
  2.23074393e-01 -9.77771135e-01  9.21808878e-01  1.63308355e+00
  3.66256729e-01  1.26853706e+00  3.97557156e-01 -1.74909205e-01
  7.81895314e-01  1.25571078e-01 -1.19776970e+00  2.77992805e-01
 -6.18766152e-01 -3.91908163e-01 -7.44978321e-01 -6.18300842e-01
  1.45210875e+00 -1.03162037e+00 -1.23822382e+00 -5.10314308e-01
 -3.65982146e-01 -8.06412753e-01 -1.44664223e+00 -2.41397890e+00
  9.51177285e-01  4.07222788e-01 -1.70876318e+00  9.00005701e-02
  1.60973719e+00  3.39949311e-01 -1.34383441e+00  1.81355217e-01]","[-1.15430835e+00  5.32602276e-01  9.28818209e-01  2.26285088e+00
 -1.71955316e+00  1.47518440e+00 -8.10821524e-01 -1.19284684e+00
  4.49052924e-01 -4.03565538e-01  7.23513177e-01  2.75035505e-01
  2.08746466e-01 -4.13016918e-01 -1.80441236e-01  1.00749708e+00
  2.96520098e-01  4.83138750e-01  8.41825879e-01 -9.88557236e-01
  1.40689007e+00 -1.94341708e+00 -4.65988769e-01 -1.13247855e+00
  9.08043906e-01  4.65976263e-01 -1.52800508e-01 -1.21926656e+00
 -9.71587881e-01  1.71726248e+00 -4.46410807e-01  7.42954389e-01
  4.85307866e-01 -3.62345639e-01  1.34007019e+00  6.06933087e-01
  2.12572926e-01  3.53760193e-01  8.54895988e-01  7.65683296e-01
  5.49975038e-01 -8.93930865e-01  1.56761151e+00 -1.43318501e+00
  9.77361011e-01  6.44415223e-01  1.61302366e+00  1.02807712e+00
  3.51844152e-01  2.89777416e-01 -1.64045844e+00  1.95226331e+00
  1.04591138e+00 -2.86888596e-01  5.18662961e-01 -1.15918505e+00
  1.03308601e+00 -1.03568580e-01 -3.92573026e-01  6.36087643e-02
 -1.66534858e+00  2.50058576e-01  3.45699984e-01 -4.12023089e-01
 -6.44620388e-01 -8.48900760e-01  2.72604426e-01  1.08400328e+00
 -1.33114915e-03 -1.42234713e+00 -6.29399143e-01  9.96362928e-01
 -2.60132725e-01  1.80801203e+00 -7.72276423e-01  3.69330634e-01
  5.61310812e-01  2.39354795e-01 -4.97838614e-01  1.33297934e+00
  3.98267524e-01 -2.12989661e-01 -1.36442182e+00 -2.11195258e+00
  1.11370834e+00 -2.24151669e-01  2.42104316e+00  4.45833067e-01
  1.22290553e-01 -5.17000498e-01  8.41969867e-01  2.15281096e+00
  1.83360756e+00 -7.10390947e-01 -7.06161267e-01 -2.80355161e-01
 -9.65915321e-01  5.59762561e-01  4.83398500e-02 -9.63163276e-01
  9.82362206e-01 -5.04887400e-01  2.06263791e+00  1.29809951e+00
  2.70206256e+00  2.30662027e+00 -1.04560141e+00  9.65902390e-01
  1.41701513e+00  9.04155519e-01  1.50754800e-01 -2.11104507e+00
  5.04416177e-01  8.90418335e-01 -1.31350199e+00  5.62184828e-01
 -1.86433089e+00  1.35707044e+00 -1.79473909e+00  2.75782295e+00
  4.65539936e-01 -1.18093084e-01 -1.03293761e+00  2.55729669e+00
 -4.06111324e-01 -4.31956141e-01  2.28387934e+00 -1.68588935e-01
  9.42319901e-01  9.49097840e-01  2.09992466e+00  3.70320774e-01
  7.37573652e-01  1.94529439e+00 -1.34966840e+00  3.57796562e-02
  6.10217643e-01  5.13347980e-01  2.39986467e+00 -7.97748390e-02
  1.38283824e+00 -1.91911551e-01 -8.29208244e-01  4.33636048e-01
 -8.70074057e-01  2.54597797e+00 -2.55288001e-01 -1.53630474e-01
  5.78582972e-01  1.65269912e-01 -2.73625153e-01 -1.03487596e+00
 -1.95192222e+00 -1.83049375e-01  1.97147504e+00 -7.51099871e-01
  5.28525885e-01  2.00395222e+00 -4.20391734e-01  8.18613871e-01
  2.35037484e+00  1.08833062e-01  1.24204597e+00  1.58130452e+00
 -6.42671613e-02 -3.72658703e-01 -1.22469242e+00  1.63023487e+00
 -1.33084765e+00 -2.32066022e-01 -5.98177582e-01  1.81777273e+00
  1.02819429e+00  3.42436067e-01 -1.02124935e+00 -1.19845634e+00
  9.27699190e-01  3.63099610e-01 -7.40967593e-01  5.90312139e-01
 -9.08325512e-01 -5.26764025e-01 -9.35707931e-01  6.53703768e-01
  2.88567371e-01  2.48066375e-01  1.94005176e-01 -1.26816504e+00
  1.87434943e+00 -3.73341032e-01 -1.30999138e+00  4.26238613e-01
  3.04826883e-01 -2.98190616e-01 -3.24948864e-01  9.94047957e-01
  9.44902282e-03  8.63527818e-01 -4.07046138e-03  2.45471182e-01
 -6.86297823e-01  1.13963888e+00 -3.94442638e-02 -2.78674089e-02
 -1.80991597e+00  8.41260775e-01  6.36067882e-01  2.67719130e-02
  2.20207013e-01 -9.72664186e-01 -1.98200475e-01  3.71105967e-01
 -1.91085504e-01 -9.50478153e-01  1.02118800e+00 -7.09043783e-01
 -2.22978291e+00 -6.52925443e-01 -8.27336676e-01 -9.40695428e-01
  2.73513994e-01  1.13093865e+00 -1.34996415e+00  1.00265532e+00
 -7.34189013e-01  8.26408497e-01 -1.62305496e+00  4.48141854e-01
 -7.39450919e-01  1.65364854e-01  9.21367595e-01 -1.20285292e+00
 -7.51056055e-01 -1.52002885e+00 -1.33732756e+00 -7.23470306e-01
  1.21903336e+00  6.58793825e-01 -2.39895925e+00  6.11763611e-01
  5.92301647e-02 -1.82644586e-01  1.77466578e+00 -2.33141683e-01
 -6.21929075e-01 -1.59979278e-01  8.46622559e-01  5.30648265e-01
  1.81005882e+00  1.92173194e+00 -2.37898153e-01  3.19507434e-02
 -6.13690679e-01 -2.20531645e+00  2.73436413e-01  7.11415521e-02
  3.82202941e-01 -1.62788839e+00 -5.43043004e-01 -1.87953204e+00
 -1.32291238e+00 -5.20904637e-01 -1.33130587e+00 -7.14500880e-01
 -1.93201192e+00 -1.10870433e+00 -4.75831730e-01 -2.00813712e+00
  3.12197552e-01 -6.53348269e-01 -3.16710301e-01 -4.11596881e-01
  7.41272454e-01  4.11509210e-01  7.01355489e-01  1.66719683e+00
  1.20884213e+00  1.15809234e+00 -1.08420826e+00  8.90031604e-01
  1.32585814e+00 -9.52229993e-01  8.10110996e-01 -3.52739171e-01
  1.28894444e+00  7.69373740e-01  5.64170311e-02  1.29738270e+00
 -2.99431527e-01  9.94053557e-01 -1.25653085e+00  2.68206013e-01
  9.81057787e-01 -2.40806937e-01 -5.15240648e-01 -1.40490863e-01
 -1.90249829e+00  1.70712480e+00 -3.92744062e-01 -2.57242382e-01
  3.23877319e+00  1.13623269e+00  2.53287573e+00  3.57000659e+00
  1.27737799e+00  4.12755352e-02 -4.33235458e-01 -4.64339368e-01
 -7.14719911e-01 -1.17979391e+00  9.03194675e-01  1.26871384e+00
 -6.58795040e-01  2.42205285e+00  9.52911056e-01  2.81344137e+00
  6.03646683e-01  6.24779395e-02  1.73931162e-01  9.28891736e-01
  1.84574903e+00  2.84916404e+00  2.18903442e+00 -3.14499930e-01
 -5.50789876e-01  2.23477150e+00  9.36636982e-01  2.16675242e+00
  2.33405165e+00 -9.71074444e-02  8.09575282e-01  4.36511991e-01
  9.01868659e-02  8.12730930e-01 -4.59547054e-01 -3.54311446e-01
 -1.14084904e-01  3.04397935e-01 -9.94547792e-01  1.03692257e+00
  9.55380554e-01  2.55273209e+00  2.14571441e+00  1.02427034e+00
 -5.22267305e-01  1.26342978e+00  4.25010348e+00  4.67745710e+00
  1.58952850e+00  1.49588581e+00  1.51865899e+00  4.61997489e-01
  6.46164055e-01  2.55754682e+00 -1.58437670e+00  2.68312680e-01
 -1.06723015e-01  1.43664725e+00  2.41612981e+00  3.16536607e+00
  5.55108246e-01 -1.22622329e+00  5.38822363e-01 -8.41334114e-01
  8.64077086e-01  2.28611312e-01 -6.39655586e-01  1.22853166e+00
  2.36759640e+00  1.97991226e+00  3.76731466e+00  5.12693346e+00
  4.46489195e+00  3.60804196e+00  2.16721991e+00  2.38094039e+00
  1.55674061e+00  1.16829616e+00 -1.07576282e-02  3.86234842e-01
  2.34752948e+00  2.46803394e-01  1.76379544e+00  3.58133226e-01
  1.46052060e+00  7.63241868e-01  3.89231867e-01  2.28283821e+00
  2.34389098e-01 -7.70821644e-01 -4.52616085e-01  2.18916581e-01
 -5.52160635e-02  1.93569760e+00  6.58907815e-01  2.18562043e-01
  2.81200695e+00  2.31744422e+00  3.21699663e+00  2.57086004e+00
  4.05645612e+00  2.82193899e+00  2.44242995e+00  9.72958131e-01
  1.50908033e+00  9.73610028e-01 -4.33972014e-01  2.63476334e+00
 -4.40332296e-01  2.47058529e+00  4.94878187e-01  1.63929708e-01
  1.36965357e+00  4.88271941e-01 -5.80629082e-01  7.86390962e-01
 -2.23334962e+00 -6.29617532e-01  5.36536150e-01 -9.93850551e-01
  4.01360987e-02  7.21598791e-01  1.15015050e+00 -3.44943457e-01
  9.35802402e-01  1.63063839e+00  1.62810860e+00  2.30503452e+00
 -3.36985798e-01  7.32316492e-01  4.17685542e-01  9.65356560e-01
 -6.39361788e-01 -1.09821464e+00  6.16099447e-01  8.68744018e-01
 -1.24302815e+00  1.01083670e+00  1.00763090e+00  2.20324425e+00
  2.43522743e+00  1.56963712e-02  1.06123279e+00  4.86543622e-01
 -9.06883468e-01 -5.51875174e-01 -9.68146937e-01  1.35128701e+00
 -1.01309415e+00 -7.30256894e-01 -1.03086766e-01 -2.51861694e-01
  9.47775857e-01  1.51043106e+00 -9.66268492e-01 -3.63625621e-01
 -1.43038169e+00 -4.64053032e-01 -2.18844097e+00 -1.72425274e+00
  2.63063057e-01 -1.98995819e+00 -6.78518028e-01 -6.37157155e-01
 -1.58825104e+00  1.18596424e-01  2.90743336e+00  1.98862461e-01
 -4.53839855e-01  3.27479828e-01  1.16093933e-01 -2.50244812e-01
 -1.92529230e+00 -1.04118534e+00 -9.57576060e-01  9.60970021e-01
 -6.27587737e-01  2.20749547e-01  8.05149792e-02 -6.56875363e-02
 -6.45037046e-01 -3.94609538e-01 -1.28434927e+00 -1.97315568e+00
  1.48467579e-01 -1.69414351e+00 -1.97847766e+00  2.63215821e-01
 -1.21929108e+00 -1.59994143e+00 -2.98527513e-01  3.15946641e-01
  1.15661370e+00  2.14228172e+00  6.76078951e-01  5.42828517e-01
 -5.93915772e-01 -5.58407035e-01  1.47459217e-01 -4.90461850e-01
  1.60140597e-01 -1.38960127e+00  3.03790215e+00  1.16635205e+00
  1.32075226e+00 -1.30216908e+00 -1.06593303e-01 -3.04475632e-01
  7.08392523e-01 -1.51808585e+00 -4.25214338e-01 -1.08560412e+00
 -1.77462692e+00  4.05852561e-01 -1.56404590e+00 -1.81576435e+00
 -4.43170002e-01 -2.77330328e+00 -1.88904121e+00 -9.16334392e-01
  9.19324467e-01  2.89331471e-01  8.96572315e-01  4.38335736e-01
  5.69265650e-01  8.07898062e-01 -2.06041789e+00  1.61363228e+00
  1.13401378e+00 -9.17438111e-01  8.48264457e-01 -6.96386494e-01
 -2.04254651e+00 -2.13122440e+00  1.69665014e+00  6.35602897e-01
  1.00918222e+00  3.88149196e-01 -2.49315005e+00  1.96368874e+00
 -1.94739135e+00 -7.59452323e-01  5.64734869e-01 -7.66043189e-01
 -5.07413455e-01 -1.59685903e+00 -3.01376659e-01 -2.54374120e-01
  1.11473309e+00  1.28510211e+00  3.05588685e-01 -1.57580016e-01
 -1.20971602e+00  1.17491628e+00 -1.54103156e+00 -1.34943066e+00
 -9.82441191e-01 -7.07453323e-01 -1.34297123e+00 -3.63488428e-01
  1.39522116e+00  9.66491560e-01 -5.79720182e-01  5.19624087e-01
 -8.43391912e-01 -1.42678652e+00 -7.17786326e-01 -7.45492633e-01
 -6.00428213e-01 -1.31250064e+00 -4.84514599e-01 -1.43872834e+00
 -1.80361591e+00 -1.17179529e+00 -8.87210502e-01  1.65124173e+00
 -1.28714749e-01 -9.00012566e-02  9.77157718e-01  1.05593638e-01
 -2.78520674e-01  4.59340488e-01 -6.64304521e-01 -1.32017158e-01
 -8.43581180e-01  1.37118342e+00 -1.11551766e+00  1.36632298e+00
  1.58913317e+00 -1.34065618e+00  7.70199566e-01  6.10115898e-01
  4.60113354e-01 -9.29691550e-01  1.92946987e+00  3.99694519e-01
 -7.50652929e-01 -5.14386415e-01 -1.33754257e+00 -3.65714289e-01
 -5.43661206e-01  1.74601506e+00 -4.21870049e-01 -5.42439695e-01
  8.09208447e-01 -9.07520377e-01  1.38123424e-01 -1.29447572e+00
  1.29965981e+00  1.15766350e+00 -1.95796583e+00 -9.90613606e-01
 -1.25016911e-01 -3.59382191e-01 -1.00830647e+00  2.72205022e-01
  5.21215705e-01  9.16143104e-01  9.42720826e-01  3.68491866e-02
 -1.26168053e+00 -1.90905616e+00  1.04867957e+00  1.04816811e+00
  5.19892220e-01 -1.46119659e+00 -3.66981419e-02  1.01409039e-01
  3.95652526e-01  1.62398072e+00  8.10671588e-01 -9.23722446e-01
 -2.58598897e-01  2.89260069e-01 -2.14296205e+00  1.57914173e+00
 -1.17258278e+00 -1.48470524e+00 -2.71201535e-01 -1.07859446e+00
 -2.51125529e-01  7.34072482e-01 -7.74495154e-01 -5.67384294e-01
 -1.91818132e-01  2.19762297e-01  8.41080683e-01 -1.24414387e+00
 -2.48577537e-01 -1.20086974e+00 -9.94790305e-01 -9.80329664e-01
  8.96479426e-01  4.32417406e-01 -9.18744005e-01 -1.89618074e-01
  2.68424618e-01  2.61590965e-01 -2.15831164e-01  3.55767568e-01
 -6.23941919e-01 -6.82159668e-01 -5.02485219e-01  4.38578150e-01
 -1.48003119e-01 -2.51466702e-01 -1.13087576e+00 -1.21974991e+00
 -9.68573123e-01 -4.92436569e-01  3.27551570e-01  6.97210335e-01
  1.54016402e-01  3.83569050e-01  1.49042403e+00 -1.26299966e+00
 -2.64506462e-01 -2.68722738e-01  6.48825748e-01  1.65694646e+00
  1.11970381e+00  1.75067759e+00  2.06187748e+00  1.29450841e+00
  6.19119753e-01  1.89830610e+00 -1.42117394e+00  8.37511166e-01
  2.03841589e+00 -7.71282175e-01  1.52920218e-01  5.33045414e-01
 -1.13059552e+00 -1.13372795e+00  2.37864482e-01  1.57710774e-01
 -9.77820836e-01 -1.13920685e+00 -8.48063262e-01  1.97346643e+00
 -2.58521340e+00 -5.67023616e-02  3.97338870e-01 -1.73985354e+00
  1.82245916e-01  7.51086766e-02  2.08574189e+00  4.87291126e-01
  4.59990867e-01  2.97692986e-01 -8.02376528e-02  5.31677048e-01
  1.32467255e+00  1.98372948e+00  6.00785049e-01  2.68388021e-01
  3.79540429e-01  1.29046408e+00 -8.82466583e-01  8.16462917e-01
 -4.42323517e-01 -1.37359793e+00 -3.39984102e-01 -3.55746803e-01
  5.44334204e-01  4.93595406e-01 -1.14270718e+00  7.02111572e-01
 -1.53819623e-01  2.01830331e-01 -1.03032348e+00  1.35303051e-01
 -3.59290422e-01  1.37265911e+00  8.48029633e-01  8.73208893e-01
 -4.87052612e-01 -5.53533713e-01 -1.92960482e+00 -8.35226621e-01
  1.17395599e-01  1.23430563e+00 -1.96428866e+00  1.06911202e+00
  6.10914912e-01 -8.08126360e-01  1.26714172e+00  1.89551923e+00
  4.90279829e-01  2.28381037e-01 -2.80638720e-01  8.42988372e-01
  2.17301285e-01 -1.36037359e+00  4.39692009e-01 -1.71901909e-01
 -1.38075620e+00  2.18843477e+00  5.63164970e-01  2.38157993e+00
  4.16535137e-01 -9.29391598e-02  5.76258576e-01 -1.34045887e+00
  7.35937324e-01  9.90128255e-01  4.03219555e-01 -8.34921054e-01
  3.31147915e-02  2.65550020e-01 -6.10194310e-01  1.90356730e+00
 -1.14818953e+00 -6.87553662e-01 -2.64218075e-01 -8.97046519e-01
 -3.53011432e-02 -2.18502230e-01 -1.23481357e-01 -1.73516730e+00
  8.40389227e-01  6.25616888e-01  1.35196490e+00 -1.95997642e-01]","[-4.86621474e-01 -9.11752444e-01  1.12221492e+00  8.48845021e-01
  4.80824094e-01 -7.63973421e-01  4.76527618e-01 -3.48092424e-01
 -1.80658497e+00 -7.22472380e-01  1.11863058e+00  7.12849535e-01
 -8.00173871e-01  8.49250842e-01 -9.33314582e-01  2.00747129e-01
  2.91596672e-01 -2.50710239e-01 -1.97621463e+00 -4.39338029e-01
 -4.94350188e-01 -1.01589059e-01  2.75723055e-01  5.75673970e-01
  2.26369743e-01  4.99592503e-01  1.82169050e+00 -4.08273091e-01
  6.35736658e-01  1.33897828e-01  5.95448347e-01 -7.32091089e-01
  1.30941605e+00 -7.49187190e-01  8.51689594e-04 -3.35623138e-01
 -2.02435056e+00  7.41198794e-01 -3.25759226e-01 -6.43136995e-01
 -3.99554554e-01  2.12938183e-02 -2.93240510e-01  8.48003381e-01
  4.65696555e-02 -1.60752341e+00 -3.11008592e-01 -8.16033068e-01
  1.97270921e+00 -1.55204658e+00 -5.72175304e-02 -3.12012376e-01
 -5.75296292e-01  2.50747195e+00  3.37213305e-01  2.62275476e-01
  7.00405870e-01 -4.32536264e-01 -1.02074732e+00  1.10830157e-01
 -1.85183622e+00 -7.00558535e-01 -1.56927768e-01 -1.22392478e-01
 -9.72708366e-02 -4.63656635e-01  1.61331469e+00 -1.85070334e-02
 -4.51310687e-01  1.87311321e-01 -1.23732131e+00  1.70436083e+00
  4.21376406e-01  1.64383495e+00 -1.39254934e-01 -1.06951749e-01
  3.21813733e-02  4.70365530e-01  1.27939115e+00 -1.67528764e+00
  7.87435756e-01 -1.16643452e+00 -9.32435312e-02 -4.72360172e-01
 -1.26914001e-02 -6.65978723e-01 -9.30617872e-01 -1.08522062e+00
 -4.23216473e-01 -1.38759860e+00 -1.65242869e+00 -1.39275489e+00
 -3.62853330e-01  6.05344111e-01 -1.11147593e+00 -4.87334684e-01
  9.70631437e-01 -6.35515737e-01  1.01220523e+00  9.79552799e-01
 -6.01826991e-01 -5.42529214e-01  9.40197355e-01 -7.35964449e-01
 -8.22747355e-01 -3.00663762e-01 -5.64066182e-01  8.30636833e-01
 -1.77345211e-01 -7.30982619e-02 -8.05769553e-01  4.10544453e-01
 -7.68050677e-01 -9.07911933e-01 -4.78046696e-01 -1.35794678e+00
 -9.01367400e-01 -4.16770096e-01  3.02971548e-01  8.66212038e-01
 -1.07088197e-01  1.65306221e+00  8.66814379e-01 -1.46177851e-01
 -1.36592454e+00  1.97857832e-01 -7.84455761e-01  1.30354555e+00
 -1.13477948e+00 -6.13550582e-01  1.33785289e+00 -7.19469639e-01
  5.96732774e-02 -5.62374143e-01 -7.65088609e-01 -1.20049425e+00
 -9.15944366e-01 -1.12929146e+00 -1.38797465e+00  1.23419336e+00
 -6.23730911e-01  1.45990323e+00 -7.54627631e-01  1.55542817e+00
 -9.19550017e-01 -3.18187647e-01 -2.24448313e-01  6.57482806e-01
  5.87415161e-01 -6.87211585e-01  1.21241285e+00 -2.26429001e-01
  5.72629436e-01 -1.15195131e+00  1.64781908e+00 -5.03948696e-01
 -9.77295998e-01  7.80598851e-01 -2.02008816e+00 -1.07581298e+00
 -7.25110394e-01 -1.22925626e+00  1.11712847e+00 -7.14643538e-01
  1.90295301e-01  6.55785198e-01  5.15936320e-01  1.04883745e+00
 -1.27571545e+00 -1.27458977e+00  8.01520121e-01  9.88756508e-01
  4.74890398e-01  1.99888117e+00 -1.11544999e+00  1.30801676e+00
  5.10536311e-01 -6.09960131e-01  9.75455120e-01 -5.27311854e-01
 -5.97343757e-01  7.98121983e-01  2.13240559e-01 -1.10362358e+00
  1.53475659e+00 -1.96014069e+00 -8.93720284e-01 -1.65231746e-01
 -8.25294388e-01 -1.21543523e+00  1.25292837e+00  7.69503020e-01
 -2.33398076e-01  4.52779750e-02 -1.54923200e-01  1.99729658e-01
 -1.18376113e+00  2.33791380e-01  4.36013446e-02 -1.09500882e+00
  6.23167573e-01  9.43300214e-01  1.31061390e+00 -2.28649593e+00
  4.42354300e-01 -8.18650839e-01 -1.85826569e-01 -4.81332112e-01
  6.16246739e-01  1.37658506e+00  3.03373768e-01  1.16793428e+00
 -1.40316833e+00 -2.94816256e-02 -5.57088295e-01 -3.75922496e-01
 -1.56049046e+00 -2.25042700e-01  9.15195935e-01 -2.55327847e+00
 -1.22174285e+00 -2.07135664e+00  2.91872546e-01  4.11060700e-01
  8.60191403e-02 -9.29906349e-03  1.49969980e+00 -8.94340362e-01
  1.54537598e-01  2.40032464e+00  4.66749016e-01  7.43759752e-01
  1.38933697e+00  8.12274953e-01  4.15783170e-01 -1.75577913e+00
 -2.21343107e+00 -4.99776959e-01  6.96509389e-01  5.80014879e-02
 -9.04400657e-01  8.20209614e-01  1.15504691e+00  1.17833642e+00
 -4.49811122e-01  1.33795983e+00 -4.64169710e-01 -1.97143504e+00
 -1.61665872e+00  3.89341475e-01  1.02671292e+00  4.83857574e-01
 -6.39598589e-01 -6.20351710e-01  1.32552958e+00  3.53269432e-01
  1.00738526e+00  4.59863459e-01 -1.38446396e+00  4.64980058e-01
 -7.76311370e-02 -1.72106796e+00 -2.20021253e+00 -3.30479395e-01
 -4.75561141e-01 -1.39853233e+00  4.02018329e+00  2.03896568e+00
  1.71154118e+00  7.81559162e-01  1.50924173e-01  1.51477980e-01
  2.72852710e-01 -2.08131817e+00 -1.06102252e+00 -2.03202543e+00
 -1.37932280e+00  1.64566912e-01  9.05292748e-01  9.08893387e-01
 -6.16947024e-01  8.04964647e-01 -4.08963708e-01  5.58109520e-01
 -8.64286975e-01  5.39878725e-01 -1.18740403e+00 -1.33908925e+00
 -2.95365096e+00 -3.80780361e+00 -4.80607875e-01 -5.59558052e-01
 -1.33051075e+00  9.94386593e-01  2.29806267e-01  3.00058934e+00
  1.49628030e+00  6.08765196e-01  1.66929504e-01 -5.17470622e-01
  1.56566255e+00  5.05319001e-01 -1.13669227e+00 -1.74003643e+00
 -1.17520504e+00 -6.86780736e-01 -1.02091814e+00 -1.25376536e+00
  1.69236822e+00  9.27048325e-01  1.57475656e+00 -2.63976226e-01
 -2.40738537e+00 -7.00080313e-01  3.33383605e-01 -1.08984112e+00
 -8.58925354e-01 -5.55269921e-01 -1.75477091e+00  4.50047079e-01
  8.13907957e-01  5.67552119e-01  2.55001090e+00  1.61635783e+00
  1.95901078e+00 -9.40243585e-01  1.14621010e+00  5.02083639e-01
 -3.68210770e-01  7.53939707e-01 -1.52279993e+00  6.03052035e-01
  1.00277744e+00 -1.17616634e+00 -1.51983325e-01 -2.07522240e+00
 -7.50640164e-01 -1.46320843e+00  2.85851075e-01 -1.17566047e+00
 -2.99885688e+00 -8.51137963e-01 -2.95659254e-01 -1.34078948e+00
 -1.30412732e+00 -8.98068840e-01  8.93734962e-01  1.00920506e+00
  8.35885627e-01  5.96315491e-01  6.13701657e-01  1.34586491e+00
  2.50704240e+00  1.01681442e+00  5.83708381e-01  1.26334110e-01
 -9.63822405e-01 -1.42686816e+00 -9.11274828e-01 -9.28003702e-01
  1.39814902e+00 -4.39821878e-01 -1.78990676e+00 -7.91268384e-02
 -6.21684897e-01  8.46014484e-01 -6.02382959e-01 -1.04891180e+00
 -8.70979591e-01 -1.69309174e-01  6.04602891e-01 -7.29199751e-02
  9.26896898e-01 -3.65463557e-01  7.95963167e-01  1.38592657e+00
  1.52921179e+00  1.32359975e+00  1.59525324e+00  7.85392838e-01
  6.21893011e-01 -7.66998996e-02  9.24803773e-01  7.18834371e-03
 -1.19670657e+00  1.28758616e-01 -1.88359648e-02 -1.33206468e+00
 -1.41931735e+00 -3.01480323e+00  9.91306962e-01 -3.61242402e-01
  4.15149416e-01  5.87174317e-01 -1.19364199e+00 -1.23534047e+00
 -2.97181108e-01 -3.37294881e-01 -1.88280921e+00 -2.00115151e+00
 -1.11576562e+00  4.54183095e-01  3.72815559e-01  1.78972080e+00
  5.52718140e-02  4.36795134e-01  7.54177613e-01  2.08694625e+00
  5.75161776e-01  1.54648388e+00 -1.20873275e+00  1.84177904e-01
 -6.38151976e-01  1.36489384e+00  1.45181483e+00 -9.52480636e-01
 -2.48200325e-01  1.49281796e+00 -1.10655519e-01 -1.16055112e+00
 -1.61645316e+00  9.25403163e-02 -1.23361239e+00  8.37460067e-02
  1.25395745e+00 -6.32308370e-01 -1.90052765e+00 -2.48897486e+00
 -1.27572391e+00 -6.68780662e-01 -2.73561262e-01  1.36464566e+00
  1.95836386e+00  1.74599629e+00  2.53977088e+00  1.96282381e+00
  1.33219197e+00 -8.00294350e-01 -1.15863466e+00  5.81319496e-01
 -3.83400111e-01 -5.88363763e-01 -3.15734267e-01  7.54865053e-01
 -1.25814300e-01  1.61909153e+00  1.84783689e-01  1.15729782e+00
 -1.61653206e-01 -8.54085281e-02 -8.09821455e-01 -8.99540328e-01
  1.67667938e-01 -1.99946155e+00 -1.95485223e+00 -1.55397798e+00
 -3.60469008e+00 -2.12553146e+00 -2.60226375e-01 -2.64580712e-01
  1.63388647e+00  4.92653573e-01  1.07313955e+00 -9.70453499e-01
 -4.63421157e-01 -1.06990552e+00 -9.64128041e-01  1.01737914e+00
 -6.32302311e-01 -5.57088046e-01  1.43798417e+00 -1.25394995e+00
  1.08573798e+00  1.23656067e+00 -4.07507530e-02 -9.82536371e-01
  4.91560923e-01 -2.11337216e+00 -1.29051343e+00 -7.02764474e-01
 -1.71312085e-01 -7.66790903e-01 -2.75711261e+00 -7.09944692e-01
 -2.27186550e+00 -3.98301861e+00 -5.70915649e+00 -2.51324083e+00
 -3.06175396e+00 -8.63118138e-01  1.01544585e+00 -1.81412068e+00
 -3.78505954e-02 -2.33092494e-01 -2.13968381e+00  9.87117915e-01
 -7.71108276e-01 -1.70681043e+00  1.70931383e+00  1.01805769e+00
  3.79170998e-01 -2.36900040e-01 -2.06892597e+00 -4.18605335e-01
  4.26999833e-01  6.66908552e-02  8.44466278e-01  2.38382866e+00
 -8.96710617e-01  2.44239139e+00 -7.51322223e-01 -2.76360918e+00
 -8.43525720e-01 -4.92465442e+00 -2.87149929e+00 -2.94279435e+00
 -2.12226989e+00 -2.48135927e+00 -2.43557692e+00 -2.38055082e-01
 -1.00999766e+00 -1.87604876e+00 -3.48280255e-01 -7.78150705e-01
 -8.64575643e-01  1.47757506e+00  1.32494449e-01 -8.87072307e-04
 -7.10353299e-01  3.83830045e-01 -2.24756959e-01 -6.81836930e-01
  8.84061411e-01  1.86533229e-01 -7.03479106e-01 -1.26326456e-01
  3.20250499e-01 -2.38551728e-01  2.97955737e-01  6.90327717e-01
  3.18136872e-01  3.46791304e-01 -7.46598660e-01 -1.16749435e+00
 -2.44639632e+00 -1.73804750e+00  8.17203692e-02 -2.46583183e+00
 -3.16532413e-02 -1.25482681e+00 -5.97853943e-01  9.61679695e-01
  8.85721082e-01  7.49845626e-01 -1.33464391e+00 -1.15536156e+00
  6.92178273e-01 -5.94765351e-01  2.74464259e-01 -3.36272558e-01
  1.05043277e+00  4.16182718e-01  4.10915502e-01  3.61203889e-01
  2.08902831e+00  3.94783222e-01  1.30851942e+00  8.11873142e-01
  1.00666286e+00  7.78873208e-01  3.76974874e-01  6.92951947e-01
 -4.78921027e-01 -1.21785899e+00 -2.16058974e-01 -1.43676030e+00
 -7.17465222e-01 -4.16021694e-01 -1.09406808e-01 -1.20663991e+00
  7.86946171e-01 -6.80689158e-01  7.77028863e-01 -1.07461767e+00
 -1.53591754e+00 -1.33017395e+00 -4.63628092e-02  5.49657773e-01
  7.05428287e-01  1.94276803e+00 -2.96961681e-02  9.18856878e-01
 -2.09357962e+00 -5.84840675e-01  6.85850395e-01  4.55342652e-01
  3.64421509e-01  8.31538178e-01  1.37672396e+00  1.23888388e+00
  3.26743635e-01 -2.25812401e+00  3.42634635e-01  1.63239154e+00
 -9.85792332e-01 -6.59539400e-01  1.43020418e-01 -2.84068362e-01
  6.54981291e-01  8.05954953e-01 -2.59045556e-01 -5.32677962e-01
  5.76852807e-01  3.40250186e-02  2.07717746e-01 -1.49344729e-02
 -1.15958487e+00  6.35438036e-01  2.57791966e-02  7.44718269e-01
  1.85419522e+00  1.17577071e+00  1.10022491e+00  4.60446311e-01
 -4.33904347e-01  2.05108000e-01  3.19824829e-01 -2.67754575e+00
 -1.96670651e+00 -9.77925662e-01 -6.55957859e-01 -1.30933098e+00
 -4.07155827e-01 -3.19268578e-01 -1.58465623e+00 -1.31081614e+00
 -2.57257398e+00 -2.09522372e+00 -2.38086564e+00 -1.20237679e+00
  1.50069406e+00  1.15674423e+00 -9.22297568e-01  1.77132366e+00
  3.76985652e-03 -3.55087399e-01 -3.37558764e-01 -5.26471847e-01
  1.83973646e+00 -1.19400758e-01  1.06284031e+00  1.19997635e+00
  6.02944203e-03 -3.49214885e-01  7.76748185e-01  1.06668582e+00
  1.37473978e+00  5.78043956e-01  2.26167675e-01 -5.89527968e-01
 -3.04489852e-01  6.66413466e-01 -1.49593671e+00 -9.18803787e-01
 -6.15459381e-01 -8.46366804e-01 -1.00220024e+00  8.15231001e-01
  8.15467207e-01  1.86122375e-01 -8.46476530e-02  1.00037428e+00
 -4.16796190e-01 -5.54498870e-01 -1.10434288e+00 -1.92819865e-02
 -1.05174293e+00  1.63540697e+00  1.59326167e+00  8.42449288e-02
  6.63443620e-02  3.40934518e-01  1.08197167e+00 -1.97912499e+00
 -1.44118518e+00 -1.64792711e+00 -4.28883972e-01  5.22627016e-01
 -3.64494602e-01  1.08945478e+00  1.10876414e-02 -2.38212191e-01
 -5.78323798e-01  1.83504695e-01  4.73180268e-01 -9.60191441e-01
  2.10118147e+00  2.27859679e-01  8.10375862e-01 -2.93591632e-01
 -1.73569542e-01  7.36089122e-01 -1.70058068e+00  1.58481883e+00
  7.05392205e-01  3.96228788e-01  1.47053143e+00 -5.10806222e-03
  1.69197751e+00 -1.34848236e-01 -5.18480010e-01  5.62920092e-01
 -1.66413847e+00  7.39547505e-01 -7.15649444e-01 -3.15306461e-01
 -8.53873196e-01 -6.47549617e-01  3.14653584e-01  2.99070237e-01
 -6.01005484e-01 -7.62497356e-01 -1.15982497e+00 -9.43946845e-01
  1.70515577e+00  5.41563480e-01  3.01808623e-01 -3.10098886e-01
  2.32134356e-01  2.11057373e+00 -8.50597640e-01  1.21874985e+00
  1.35082851e+00  3.46783359e-02  1.47897560e-01  3.12177816e-01
 -2.77704168e+00  5.16615711e-01 -8.09373812e-01 -3.96102751e-01
  2.14434329e-01  4.87139828e-01 -3.45100622e-01 -1.76196698e+00
  8.09419720e-01  1.12093406e+00 -6.62911120e-01  5.06453019e-01
  5.82457143e-02 -8.01813345e-01  8.35708403e-01 -1.26673948e+00
 -5.05092786e-01  9.15963493e-01 -6.39246361e-01  1.38140917e+00
  1.58125511e-01 -9.97722054e-01 -1.41487836e-01 -3.00851513e-01
 -1.56384563e+00  3.43191751e-01  2.03208489e-01 -1.56294288e+00
 -1.23972599e+00 -8.93652400e-01  1.48791743e+00  2.81865274e-01
  8.71084521e-01  1.01947070e-01  3.97370225e-01  1.19349305e+00
 -4.11983538e-01 -4.62988682e-01 -6.48069450e-01 -9.59182038e-01
 -9.02520158e-03 -4.39927434e-02  7.17451090e-01 -2.06707172e+00
  8.14790211e-01 -1.42747105e+00  1.03335784e+00 -1.30464350e-01]","[-1.11969354e-01  9.06434837e-01  5.25061323e-03  6.34714229e-01
 -1.60311551e+00  2.52031575e-02  1.96597773e-01  9.58616793e-01
 -9.70265241e-01 -4.43822168e-01  3.62045927e-01  1.36584604e+00
  1.33468766e+00  8.53397241e-02 -1.54106019e-01  1.43460763e+00
 -1.03671772e+00 -2.15341270e-01 -2.43179949e-01  3.53352500e-01
  1.14330175e+00  4.67655823e-02  7.94734620e-01  1.47876071e+00
  3.84362365e-01  2.75189056e-02  1.01550736e+00  2.22227357e+00
 -9.86852596e-01  1.67429639e+00 -5.44557217e-02  4.05926001e-01
  2.23141183e+00 -1.94818232e-01  8.52581276e-01  6.84074837e-01
 -9.81256373e-01  8.32995865e-01 -1.43455338e+00  1.21426014e+00
 -7.58747486e-01 -4.86727651e-01  4.92450668e-01  3.18610283e-02
  1.98411980e+00  2.49576409e+00  4.01509813e-01  2.14684838e-01
 -8.43735777e-03  7.01043873e-01 -1.70373464e+00 -4.89952751e-01
 -4.42204976e-01 -4.69413387e-01 -3.66946332e-01  1.25323420e+00
  8.58315859e-01 -2.35099967e-01 -6.31578004e-01 -6.74196906e-01
 -4.43275038e-01  1.48763168e+00  4.57821616e-01 -1.15285238e+00
  9.34173685e-01  1.44063315e+00  6.29033951e-01 -8.99466189e-01
 -1.22894975e+00  1.27600678e+00 -3.57779537e-01 -7.00742586e-01
 -1.55099959e+00 -1.27677894e-01 -8.27682563e-01 -2.66700600e-01
  4.96455850e-01  1.25819675e+00  3.98502237e-01 -5.06146293e-01
  6.75778223e-01  1.06928481e+00 -1.59373338e+00  1.73490740e+00
 -1.46832771e+00  1.39799644e-01  1.52363723e-01 -5.40630585e-01
 -5.35439394e-01  1.96293220e+00  2.24994871e-01 -1.81695577e+00
 -3.46883659e-01 -1.70873316e+00 -6.44671820e-01  8.88459817e-01
 -1.36779428e+00 -1.31096861e-01 -8.69344248e-01  7.32743699e-01
  9.51612747e-01 -1.01095216e+00  1.73393477e+00 -2.96618445e-03
 -1.31264909e-01 -4.27660924e-02 -1.25863229e+00 -3.31876114e-01
 -3.12514426e-02 -8.20469642e-01 -1.24391577e+00 -2.17608488e+00
  1.56038514e+00 -4.74296186e-01 -5.51860293e-01 -1.90739132e+00
 -8.00604718e-01 -1.13971660e+00 -4.18534127e-01  2.33047182e-01
  4.76773247e-01  4.19521109e-01  3.91813321e-01  4.78477047e-02
 -6.32690835e-01  3.05032184e-01  2.10319663e-01  1.23223184e-01
  8.66044450e-01  2.11646877e-01 -2.02054584e-01 -1.76901422e+00
 -1.45168703e+00  1.25238990e+00  3.69712997e-01  4.56088655e-01
 -1.12128646e+00 -9.50134269e-03  3.84406670e-01 -5.94945406e-01
  9.66451100e-01 -3.90003380e-01  1.13228727e+00 -4.53264313e-01
  6.50205611e-01  1.38070866e-01 -1.39293936e+00 -1.05109990e-01
 -4.83256647e-01 -9.33224758e-01  6.74663204e-01  6.71821641e-01
 -1.78618360e-01  8.99171388e-02 -1.95361444e+00 -3.85223915e-01
 -4.95857070e-01 -8.54917429e-01 -2.75348616e-01  1.11662026e+00
  8.65038972e-01  1.45621485e+00 -9.79248917e-01 -2.99381926e-01
 -1.97453563e-01  4.15076198e-02 -7.60640392e-01  2.56668710e+00
 -1.12414691e+00 -3.66964461e-02 -1.69092738e+00  1.00781595e+00
  3.10595475e-01  3.32474729e-01  1.50536944e+00  8.92277787e-01
  1.36247459e+00 -1.28431908e+00  2.59640615e-01  1.07152081e+00
 -1.09212884e-01 -8.94497614e-02  1.59024372e+00  3.07129971e-01
  1.83736565e-01  1.94026516e+00  3.73816940e-01 -1.52129404e+00
  1.58642396e+00  8.86881305e-01  5.12265841e-01 -1.50260436e-01
  6.79260023e-01  1.74873400e+00  9.42920537e-01  1.78437899e+00
  1.74212286e-01 -6.56930390e-01 -8.58952216e-01  8.47865179e-01
 -1.11215937e-02  4.09053556e-01 -1.93470944e+00  2.19198808e-01
  1.57371879e+00  8.05424665e-01  7.75416324e-01  2.06597223e+00
  1.05211963e+00  1.68584000e+00 -7.27917339e-01  1.39889949e+00
 -4.64216462e-01  9.33413047e-01  1.15629834e+00 -8.62641385e-01
  1.09968183e+00  1.09916585e+00  1.41422336e+00  3.13950244e-01
  3.80824541e-03 -1.35147012e+00  4.12657625e-01  5.90368914e-01
  1.58877408e+00  7.10472387e-02 -1.15794682e+00 -9.57191227e-01
  1.14864168e-01  4.63400505e-03  3.88099905e-01  1.47415430e-01
  2.12020493e-01  1.06586208e+00  2.34530548e+00  8.18759639e-02
  1.43412356e+00  7.50676449e-01  3.04031643e+00  7.08053791e-01
  2.69986488e-01  3.66838665e+00 -3.87399353e-01  1.45102035e+00
  5.10152856e-01 -1.12693438e-01 -5.21284441e-01 -2.43659132e+00
 -4.32189222e-01  1.26462980e+00 -1.06770846e-01  3.98276190e-01
 -2.32964488e-01  1.06909888e+00  3.68582020e-03 -7.23014425e-01
  6.61946074e-01 -1.89371318e-01 -6.06391289e-01  7.41943378e-01
  2.47436212e-01 -8.50140847e-01  3.14957756e-01  1.76279730e+00
  2.09830142e-01  2.28612047e+00  2.80519607e-01  1.96186900e+00
  1.42831587e+00 -1.29820919e+00 -3.65355020e-01 -2.61244114e-02
  7.59688724e-01 -1.38086036e-01 -2.03226515e-01  1.21705037e-01
 -5.77793232e-01 -8.54527765e-01  4.59282184e-01 -7.12661553e-03
  1.86578053e+00 -6.22514527e-01 -3.84288758e-01 -1.62463930e+00
  4.07311367e-01 -4.83667494e-01 -2.86792425e-01 -1.69704472e+00
 -1.57507698e+00  2.34807386e-01 -2.32966275e+00  6.36968517e-02
 -1.04870324e-01 -2.08792001e+00 -5.47680669e-01  2.24899311e-01
  3.48183697e-01  5.82531615e-01 -8.70486192e-01  3.81684712e-01
 -8.00752842e-01 -2.92152988e-01 -7.15429883e-01  1.10847188e+00
 -1.26796609e+00  9.37927325e-01  4.27322555e-01  1.23910356e+00
 -2.16296201e+00 -3.67179455e-01  4.68859163e-01  1.14812637e+00
 -3.66668242e-01  9.47459821e-01 -8.33442032e-01  1.15064308e-01
  7.78107882e-01  9.18974983e-01 -1.29515814e+00 -2.22957304e+00
 -7.21294325e-01 -1.00418644e+00 -1.93885204e+00 -1.49499472e+00
  1.48959916e+00 -3.73528746e-01 -8.80533060e-01 -1.28781162e+00
 -1.12389645e+00  2.11706639e-01 -1.17130547e+00 -5.91594231e-01
  1.80533220e+00 -6.65198724e-01  5.53883384e-01  8.10723693e-01
  5.38610641e-01  8.41157048e-01  1.14118661e+00  1.51075120e-02
 -1.96297446e+00 -9.85765301e-01  1.56842594e+00 -2.80222465e-05
  2.85384206e-01 -2.41217312e+00  1.84273900e+00  2.82649855e-01
 -2.65837997e-01 -1.50335465e+00 -1.57539293e+00 -2.77673423e+00
  1.12693200e-02 -1.26803357e+00 -9.45708938e-01 -4.02090959e-01
 -1.33513722e+00  6.73010347e-02 -2.16916399e-01 -9.16058877e-01
  1.16982535e+00 -2.15483524e+00 -1.59236012e+00 -5.71299889e-01
  8.34806400e-01 -9.34213033e-01 -7.76203681e-01 -1.86333869e+00
 -8.88557302e-01 -1.62188867e+00 -2.93489315e-01  4.23359314e-01
 -4.07785078e-01  4.05758782e-01 -8.59783985e-01  1.08483631e+00
  1.79535935e+00 -3.16564340e-01  1.84791062e+00  5.56619630e-01
 -3.50890495e-01 -2.70245928e-01  8.30623010e-01 -2.80920095e-01
 -1.36874589e+00 -1.54573257e+00 -4.00444416e-01 -2.94953586e-01
 -6.11512625e-01  4.19339626e-01 -1.82787956e+00  3.00292315e-01
 -5.32234924e-01 -4.93755524e-01 -6.81901923e-01  2.76806896e-01
  1.87884383e+00  1.25512617e+00 -1.16797105e+00  1.46938537e+00
 -4.88809462e-01  5.22601923e-01  5.01679010e-01  3.71739068e-01
 -9.04493464e-01  7.73986769e-01  2.99527482e+00 -6.16148870e-01
  1.54467903e+00  6.14555306e-01  1.83833509e+00 -1.04887780e+00
 -2.06817487e-01  1.09846208e+00  8.22963260e-01  1.00769786e+00
 -9.11250244e-01 -1.54341539e+00 -1.71242056e+00 -9.65072379e-01
 -7.29320123e-01  3.38202062e-01 -1.77706288e+00  7.69102466e-01
 -6.72815895e-01  2.07847320e+00  2.15748493e+00  5.06449160e-01
 -1.45324657e+00  2.26963692e-01  1.41066503e+00  1.35225469e+00
 -8.51485126e-01  1.46478500e-01  5.67340888e-02  1.53005700e+00
  9.20657951e-01  6.72517564e-02 -1.38957060e-01  9.02503719e-02
  9.67444772e-01  1.63175245e-01 -5.24012772e-01  1.03089800e+00
  1.59536393e-01  1.17646760e+00 -6.87293334e-01 -2.61415298e-01
  1.14905062e+00 -8.20134364e-02  4.65966861e-01 -1.00237837e+00
 -4.87019487e-01 -6.97236354e-01  1.19440220e+00 -2.81013692e-01
  7.68008293e-01  2.19583686e-01 -1.67850577e-01  1.88803307e+00
  5.73938860e-01 -7.24797280e-01  1.19614894e+00  4.28478734e-01
 -5.29507992e-01  1.48771314e+00  3.91790469e-01 -1.00211748e+00
 -1.61836362e-01 -8.00918896e-01 -5.32549848e-01  3.91909343e-01
  4.34892797e-01  8.30847905e-01  3.94360095e-01 -1.19151883e+00
  5.41150962e-01 -7.71855873e-02  1.49108680e-01  1.28609234e-01
 -5.14693688e-01 -1.67980889e+00 -4.70005392e-02  2.55078238e+00
  8.39676662e-01  2.49688120e+00  9.48769426e-01  8.50427813e-01
 -6.26794675e-01 -7.69610065e-01  8.01431671e-01 -7.24891616e-02
 -3.58453032e-01  6.92794498e-01 -5.25328492e-02  7.18846040e-01
 -6.08335948e-01  1.31073798e-01  1.05288173e+00 -6.73064322e-01
 -1.43398724e+00  3.39831229e-01  1.89312481e+00  1.30950141e+00
  1.06885852e+00 -1.16722113e+00 -1.11836408e+00  1.41938497e+00
  1.80978380e-01 -1.09015380e+00  1.44793253e+00  3.39587559e-01
  3.08188620e-01  3.13912333e-01 -3.11637671e-01 -8.14704620e-01
  1.16443588e+00  1.17736137e+00 -1.45548652e-01 -4.81205759e-01
 -1.61553449e-01 -4.79681442e-01  2.36261014e-01  3.29493807e-01
 -2.61014419e-02 -5.63391062e-01  1.02073736e+00  3.86599831e-01
 -8.02810627e-01 -1.63453462e+00  7.13365626e-01 -3.51660333e-01
  5.14359245e-01  2.10244153e-01  5.72106398e-01  9.56730613e-01
 -1.90260720e+00 -2.33859361e-02  9.03711039e-01 -9.62267591e-02
 -3.84527265e-01 -1.29215164e-01 -6.34775049e-01 -2.72554752e-02
  6.98709447e-01 -7.04980873e-03 -3.67869272e-01 -1.45950661e-01
  1.52702854e+00 -1.39329577e+00 -1.12707264e-01  7.44866518e-02
 -4.62006322e-01 -2.48871311e-01 -7.65472717e-02  9.81385656e-01
  1.33866024e+00  9.11573749e-01 -6.43091775e-01  1.53112292e+00
 -2.51290585e-01  1.09119314e+00 -1.13061447e+00 -2.49291445e-01
  1.79173299e+00 -5.13247700e-03 -2.23432340e-01 -5.83599185e-02
 -5.91531084e-01  5.47325809e-01 -5.53756285e-01  5.27528311e-01
 -7.99127820e-01  1.36042238e+00  2.23862659e-01 -2.59997561e-02
  2.36998004e+00 -9.76758422e-01  1.06629341e+00  1.51248982e+00
  1.58172939e+00  2.32967223e-01 -2.00642932e-01 -2.21873005e+00
 -7.92813378e-01 -5.99727436e-01  2.41662619e-01  2.56450355e-02
 -4.49080603e-01 -2.10838073e+00  2.44031800e-01 -9.03810108e-01
  9.89681437e-02  5.80086179e-01  1.29279703e+00 -1.22157227e+00
  9.90352858e-01 -1.19665558e-01  5.78006677e-01 -8.02666316e-01
 -4.19839919e-01  4.08587066e-01  1.92050837e+00  2.92029057e-01
  3.13673943e-01 -2.04395563e-01 -1.99158589e+00 -3.64119479e-01
  8.08748921e-02 -9.40121687e-02  1.36440779e-01  4.11954954e-01
  3.57550563e-01  4.90501797e-01  5.18906651e-01 -1.66222402e+00
 -1.12673293e-01 -9.66995467e-01 -5.81024342e-01 -5.63568899e-01
 -3.57718722e-01  1.23587281e+00 -1.24270381e+00  3.16015182e+00
 -3.41106295e-02 -1.19042545e+00  8.18108637e-01 -3.19934324e-02
  8.44090122e-01  1.37014556e+00 -1.02910558e+00 -8.82283964e-01
 -6.97003350e-01 -6.24573128e-01 -1.64608325e+00  4.82691358e-01
 -1.35791689e+00  1.83030048e+00 -3.27407229e-02 -1.07254733e+00
 -3.63417953e-01 -1.37064697e-01 -4.24170154e-01  1.39560355e+00
 -2.45308731e-01 -3.93967320e-01  1.08173534e-02  1.27989187e+00
 -4.74144470e-01 -5.16412098e-01 -3.06129612e-01  1.19721830e+00
 -9.89714126e-01 -3.06840886e-01  1.15691716e+00 -1.11067388e+00
 -4.07766161e-01  8.57363623e-01 -4.46041411e-01  2.50469272e-01
 -1.06202399e-01 -1.28862606e+00 -7.79943916e-01  5.91139230e-01
  1.46512511e-01 -2.10552588e+00 -1.21668971e-01  1.17866904e+00
 -1.68842911e-02 -8.67151316e-01  1.01378322e-01  4.25884243e-01
  1.62488085e+00 -5.64633360e-03 -1.20393965e+00 -1.71612915e+00
 -3.11232794e-01 -4.61923729e-01  3.43875089e-01 -1.65680744e-01
  6.03624660e-01  1.91073209e+00 -2.81033835e-01  2.35350577e-01
 -1.76922765e-01 -9.05012511e-01 -1.04120772e-02  4.67763426e-01
  1.31406934e+00 -6.42659650e-01  1.45756752e+00  1.41293723e+00
  1.02736436e-01  2.22271064e-02  8.42347539e-01  2.58647419e-01
  7.51204287e-01 -9.28373216e-01 -9.30977519e-02  2.02327130e+00
  3.47868817e-02  1.34958556e+00 -1.08862075e+00 -3.31968161e-01
  4.38486987e-01  6.49291129e-01  7.46304872e-01  1.57559222e+00
  9.02905699e-01  1.79649057e-01 -1.41982392e+00  6.86584692e-01
 -2.16491283e+00  2.29719234e-01 -1.12844789e-01 -1.70783626e+00
 -8.28951654e-01 -2.17577420e+00 -7.85353949e-01  4.25863453e-01
 -6.26699496e-01 -7.56751212e-01 -5.81955494e-01 -1.12202776e+00
  1.05484553e+00 -5.29838003e-01  8.87033147e-01 -1.93438300e-01
  5.77608668e-01  4.16623301e-01 -4.46322022e-01  5.41234866e-01
  7.27843458e-01 -1.24180764e+00 -8.76097153e-01  2.50966431e-01
 -6.64176371e-01 -5.21383591e-01 -3.07246617e-01 -4.33554726e-01
 -5.82976668e-01  3.02766649e-01 -1.26916654e+00  1.74572655e-01
 -1.23884701e+00 -2.28886370e+00  3.20146590e-01 -8.75354377e-01
 -1.14997526e+00  1.08156365e-01 -1.85959499e+00  9.35810819e-01
  6.12558166e-01 -3.31046662e-01  5.35162628e-01  2.08605222e+00
 -9.21004400e-01  9.69325094e-02  6.24593382e-01  1.10423348e+00
 -9.27898104e-03  1.01908348e+00  1.54582840e+00  4.24480682e-02
 -3.19930828e-01  1.19878241e-01  1.62335417e+00 -6.40999413e-01
  5.63007279e-01 -4.18345172e-01 -5.71235058e-01 -2.00374528e+00
  1.33098490e+00  5.62155365e-01  1.32043477e+00 -1.13184205e+00
 -9.06397395e-01  1.86862064e+00 -1.80894133e+00  2.58572982e-01
  2.84127074e-01 -1.49567767e+00 -4.83324842e-01  1.80639684e+00]","[-9.02995725e-01  1.24928504e+00  4.60927755e-01 -1.46570367e+00
  5.22689559e-01  5.21983754e-02  9.84641997e-01 -5.55484475e-01
  1.29107751e+00 -1.16761405e+00  1.24348468e+00  6.21085701e-01
  4.66085863e-01 -4.31400994e-01 -1.27374808e+00  5.96932776e-01
 -9.40066708e-01 -6.72871277e-01  3.66709016e-02  1.74212499e+00
  1.18944864e+00 -7.91711140e-01  1.54667659e+00 -7.34092307e-01
  7.70000673e-01  6.75456294e-01  3.07113767e-01  1.72268963e+00
 -5.63377866e-01  1.36899500e-01 -2.44297205e-01  3.73084805e-01
  4.68542720e-02 -4.07235523e-01 -7.15739077e-01  1.60179964e-01
  1.47256535e+00  8.16852084e-01 -8.47205440e-01  8.54294342e-01
  1.71367164e+00  1.41684875e+00 -1.00065212e+00  1.54766311e+00
 -3.42547242e-01 -8.00034253e-01 -1.14102948e-01  5.23096231e-01
  7.21356446e-02 -5.16841322e-01  3.59099540e-01  4.75434526e-02
  5.29667190e-01 -4.39926255e-01 -1.30319257e-01 -3.71845745e-01
 -5.22457099e-01 -2.52848877e+00 -2.30651692e-01  5.39549457e-01
  1.19557477e+00  5.78698716e-02  9.61894073e-01  7.38796709e-01
  1.49508190e+00  3.48752272e-01  3.16060651e-01 -1.12780111e+00
  2.35687471e+00 -5.75538801e-01  1.12447446e+00 -2.86538881e-01
  7.32162004e-01  2.11352674e+00  3.59019890e+00  2.25817340e-01
 -1.92394903e-01  1.90799844e+00  2.91030575e-02 -1.99202311e+00
 -6.09092228e-01 -1.28383848e+00  1.21579825e+00  9.90518694e-01
 -5.62614013e-01 -9.64076295e-01 -2.28877888e-01  3.46553886e-01
 -5.39813811e-03 -1.57303574e+00  1.20833314e+00  8.83423731e-01
 -1.08660094e+00 -6.75365531e-01  1.85106180e+00 -3.14236411e-01
  9.78292045e-01  3.93442328e-01  1.52701319e+00  5.03476318e-01
  4.05637376e-01 -8.56029521e-01 -3.43844398e-01 -4.00526732e-01
 -1.32527259e+00 -1.22299712e+00 -1.60801346e+00 -2.49743494e+00
 -3.64105422e-01 -7.60885865e-01 -1.12809812e+00 -4.02235207e-01
 -2.40805634e+00  1.04017608e+00 -7.59078117e-01  3.02748575e-01
  1.08157800e+00  9.14587154e-01  1.22404659e+00  6.79484198e-01
  3.36861793e+00  2.35894265e-01  1.28836864e+00  1.41576027e+00
  1.27938458e+00  1.09947003e+00  2.21788913e+00 -8.88523768e-01
  1.94914783e+00 -2.43652429e+00 -6.40691175e-01 -2.91614645e-03
 -1.08593671e+00 -8.13025282e-01 -2.37637688e+00 -9.45342362e-01
 -3.24349221e-01  1.23753173e+00 -9.73274319e-01 -6.39484668e-01
  1.38530833e+00  1.94668131e-01 -4.55363791e-01 -3.27489469e-01
  3.14905879e-02  1.22941021e+00  5.91637836e-01  2.26703086e+00
  1.95806164e+00  9.98229831e-01 -1.43777955e-01 -1.57008807e+00
  2.67614168e+00 -3.66338496e-01  8.20008129e-01  5.38438018e-01
 -1.68111324e-01 -2.50715826e-01 -1.47943829e+00 -3.98896620e-01
 -3.47820753e+00 -2.57179461e+00 -1.24060423e+00 -3.57227960e+00
 -3.87367267e-01  1.22452409e+00 -1.78773329e+00 -1.08524530e+00
  3.00391174e-01 -4.88847731e-01  1.39485507e-01 -5.07020384e-01
 -7.90538106e-01  2.20570668e+00  4.17865921e+00  5.05990269e-01
  1.37020474e+00  7.31666887e-01  1.74777333e+00  8.89978168e-01
  1.57522483e-01 -1.88908780e+00  3.93416223e-02 -1.68032420e+00
 -8.33395688e-01  2.73510167e-01  3.32814021e-01 -1.97046318e+00
  7.69484317e-03 -2.86033666e+00 -1.71258995e+00 -4.06115301e-01
 -1.34889396e+00 -1.77896930e-01  3.79208589e-01 -8.38830377e-01
  1.03157058e+00 -1.93125218e-01 -1.01011955e+00  2.04505014e-01
  1.18404297e+00  1.74470837e+00  2.34615407e+00  1.80891730e+00
 -1.77634722e-02 -6.53940833e-01  4.91310434e-01  5.08309475e-01
  2.05937149e+00 -8.62272315e-01 -3.71577512e-01  3.57037879e-01
  6.63988528e-01 -1.86533067e+00  5.99087775e-01 -3.55164763e-02
  1.32590452e+00  1.13196263e-01 -1.80079352e+00 -1.40142782e+00
 -1.14169946e+00 -4.19409058e-01 -1.11834528e+00 -1.60027143e+00
 -6.66038031e-01  4.64082651e-02 -1.69644593e-01  2.98314013e-01
  2.32740229e+00  3.24838180e+00  1.47927879e+00  1.50597838e+00
 -1.65216385e+00  2.42813279e-01  5.41375852e-01 -9.92279959e-02
 -2.02716967e-02 -1.35221838e+00 -4.52130895e-02  1.39489470e+00
  5.68422890e-01  5.61180692e-01  4.11872797e-01  1.16476419e-01
  5.88799187e-01 -1.39950233e-01 -6.04017045e-01 -1.67323145e+00
 -1.84083009e+00  3.82570374e-01 -9.58091932e-01 -7.25634562e-02
 -1.13212097e-01 -3.77548836e-01 -5.10794129e-01  9.70217989e-01
  2.24197423e+00  1.57552754e+00  1.97795041e+00  3.64838636e-01
 -1.60216774e+00 -1.86580111e+00 -1.91173920e+00 -1.13828239e+00
 -6.14512088e-01 -5.63672970e-01  1.15836411e+00  5.87887368e-01
  1.56686376e+00  1.21425076e-01  1.19746152e+00 -3.74422613e-01
  4.94584093e-01 -6.62481918e-01 -3.95463353e-02 -1.67231725e+00
 -7.61063785e-01 -1.18274216e+00 -8.38426888e-01  2.93745195e-01
  2.59349304e-02 -1.18328114e+00  1.28580547e+00  1.41823146e+00
  2.11019128e+00 -4.83976192e-01 -2.07893143e+00  2.29995010e-01
 -2.54784487e+00 -8.69798419e-01 -6.15540117e-01 -1.07794862e+00
 -1.16388417e+00  2.60484118e+00  1.28143642e+00 -2.23913305e-01
  2.43926209e+00  2.85740918e+00 -1.66582486e+00  1.33566214e+00
  2.71708900e-01  1.19331502e+00 -1.36306952e-01 -8.85858820e-01
 -1.57233272e+00 -1.24158083e+00  2.71085725e-02 -1.29079262e+00
  1.66931034e+00  7.61491297e-01  1.12409747e+00  1.02001208e+00
  2.09547410e+00 -1.21363674e+00 -2.25203767e+00 -1.71539349e+00
 -1.58274613e+00  6.94550131e-01 -1.11733222e+00 -1.84147096e+00
 -3.48309825e-01  9.94541108e-01  1.92586207e+00  5.33051160e-01
 -1.18136755e+00 -7.32959828e-02  3.02081708e+00  1.05857644e+00
  1.37843476e+00  1.13944017e+00  2.48391603e+00  3.29772568e-01
 -7.40358644e-01 -1.45784661e-02  1.34395004e-01 -1.99202999e-03
 -7.57341971e-01 -3.53662556e-01 -8.84786072e-01  7.00605490e-01
 -1.16837807e+00  1.13269766e+00 -2.79281877e+00  1.06279334e+00
 -1.32423716e+00 -2.30133755e+00 -9.63189020e-01 -1.28624814e+00
 -1.62017430e+00  4.44700812e-01  1.06077993e+00  1.23978345e+00
 -6.10823789e-01  6.28261059e-02  1.48546761e+00  7.30984328e-01
 -4.61223712e-01 -1.04805742e-01 -8.33054173e-02 -5.57839994e-01
  1.63085337e+00  5.36203807e-01 -1.38578436e+00 -8.01213659e-01
 -1.22989578e+00 -6.41414066e-01 -6.95643861e-01  1.88603954e+00
  1.07368543e+00 -3.79728904e-01 -1.02066515e+00 -1.48297504e+00
 -6.97631737e-01 -9.70276629e-01 -6.79283738e-01 -2.66810415e+00
 -1.98861606e-01 -2.87792882e-01 -2.31365016e-01 -2.98242616e-01
  7.79013088e-01 -1.14119245e+00 -2.27875319e-01 -2.86716370e-01
 -2.09373001e-01 -2.68572477e-01  6.37584879e-01  2.12979643e+00
 -1.53076012e+00  1.68482450e-02  2.62265204e-01  5.97152797e-01
  1.07596871e+00 -7.69967643e-01 -2.05873650e-01 -3.62583792e-02
  1.00969763e+00  1.49895052e+00  9.92343123e-01 -4.74780679e-01
  5.97947195e-01 -1.26657490e+00 -1.34963275e+00 -1.84404430e+00
 -1.12500005e+00 -2.49991924e+00  1.88862979e+00  1.74128958e+00
 -1.51986222e+00  7.33547577e-02  1.05888432e+00 -1.12102496e-01
  1.56686349e+00  1.73601831e+00 -1.22232470e+00  4.81612610e-01
  3.32973445e-01  2.07495999e-01 -1.22961902e-01  3.15351199e-01
  1.58615231e+00 -2.43505918e+00 -5.83370237e-01  1.33469838e-01
  1.32384951e+00  4.40699182e-02 -9.29284334e-01 -1.87151853e+00
 -1.52455708e+00 -3.98498065e-01 -1.44188976e+00 -7.11411616e-01
 -3.26774797e+00 -2.94445474e-01  3.45591213e-01  1.30315617e+00
  6.10474513e-01  1.17521822e-01  6.01621979e-01  1.92818242e+00
 -4.20216927e-01  3.38438229e+00  1.40240687e+00 -3.82583370e-01
 -1.08249404e+00 -1.59418429e-01 -5.11146039e-01 -3.25104054e-01
  4.03994091e-01  9.58910830e-03  9.37752338e-02 -1.07408272e+00
 -1.04363280e+00 -7.10852589e-01 -2.08802361e+00  3.58696246e-01
 -1.22207680e+00 -3.56536905e-01 -9.68584355e-01 -2.79836345e+00
 -1.40468381e+00  1.30164159e+00  2.07771182e+00  1.46756305e-01
 -6.26776429e-01 -5.08999857e-01  8.38616942e-01  7.65589199e-01
  4.84334369e-01  7.78780306e-01 -2.45675640e-01 -2.09624584e+00
  1.61490689e-01  5.91193427e-01  5.26842509e-01  2.07466891e-01
  4.78432762e-01 -1.88352550e+00  1.82955555e+00 -2.59855602e-01
  1.68530324e-01 -2.78443364e-01 -2.21238957e+00  5.46727916e-01
 -2.31794274e+00 -4.70178648e-01 -3.11632823e+00 -3.29422506e+00
 -7.62117153e-01  1.71634730e+00  8.07347014e-01  1.07077486e+00
  1.29661675e-01  1.60042740e+00 -2.64620272e-01  1.49368409e+00
  3.44254659e-01  8.49164690e-01  1.78553374e-01  1.46741444e+00
 -1.28695636e+00 -1.69694570e+00  1.08784555e+00  2.12913285e+00
  4.70300998e-01 -3.37511049e-01  1.66492052e+00 -8.44206266e-02
 -1.32058130e-01 -1.58369409e-01 -1.96333687e+00 -1.72653642e+00
 -7.16051273e-01  8.28783232e-01 -2.67593349e+00 -3.02762411e+00
 -1.09012274e+00  1.08690147e+00  2.03357191e+00  9.22949405e-02
 -2.08124529e-01  2.13492626e+00  1.86476586e+00 -2.98466898e-01
  6.54923106e-01  1.45475493e+00  1.17806371e+00  6.05799068e-01
 -2.28060336e-01  9.17787804e-01  1.65810788e+00  2.18223178e+00
 -8.88412372e-01  6.98015041e-01  1.26873137e+00  5.56436281e-01
  4.64573807e-01  5.69387041e-02 -3.11490952e-01 -1.82876500e+00
 -1.51032065e+00 -1.05330888e+00 -1.87046661e+00 -1.89919333e+00
  1.39565010e-01  4.84978561e-01  2.08102025e-01  1.84152841e-01
  6.61767320e-01 -2.84948026e-01  4.44316588e-01  2.07718376e+00
  3.92431961e-01 -2.00593206e-01  7.90715822e-01 -9.87976179e-01
 -1.42879205e+00  6.31101481e-01  5.67551789e-01  3.38103396e-01
 -3.85782826e-01  1.21931382e+00  5.43869412e-01  1.26336913e+00
 -6.84089724e-02 -7.07126088e-01 -1.01861540e+00 -1.03483063e+00
 -1.25001989e+00 -8.37780043e-01 -3.22762555e-01 -1.91193423e+00
 -1.70023939e-01  1.95061227e+00  1.62237229e+00  1.15486773e+00
 -3.09056468e-01  5.90227847e-01  1.20206101e+00  5.52860225e-01
  1.39498484e-01 -5.19127846e-01 -1.13631833e+00 -1.92206431e-01
 -9.51132975e-01  9.13204978e-01 -1.59417990e-01  1.03579869e+00
  4.48652408e-02 -3.45738083e-01  4.99216247e-01  1.64617781e+00
  8.38164652e-01  1.37303825e+00  2.12770467e+00  1.90111764e-01
  9.94132801e-01 -2.66555755e+00  5.90174051e-02 -7.04125271e-01
 -1.49477715e+00 -7.10788289e-01  6.00717213e-01  1.22747913e+00
  1.24458410e+00  1.66960074e+00 -6.39689278e-03 -6.29771747e-01
 -4.06892060e-02 -8.77245978e-01 -2.84864154e+00 -9.85849034e-01
 -1.47231032e+00  6.83681955e-01  1.06603303e+00 -1.33454744e+00
  1.64403555e+00  9.85660333e-01 -3.13402175e-01 -1.22876393e-01
  2.85148013e-01  5.59528088e-01  6.26687942e-01 -1.05429691e-01
 -2.29598876e+00  1.35917197e+00  5.08760300e-01 -1.42807181e-01
 -1.26823581e+00 -9.38021088e-01 -2.12787166e+00  7.48598050e-01
  1.53256394e+00 -6.56771011e-01 -4.66651125e-01  1.77919079e+00
  3.10009228e-01 -3.71275735e-01 -2.11766606e+00 -5.38485245e-01
 -2.76631688e-01 -3.15696400e+00 -1.80272469e+00 -7.22842936e-01
 -4.71997490e-02 -2.72467656e-01 -6.73044708e-02 -6.80205505e-01
  2.40493691e-01  2.20816133e+00 -1.03023864e+00  1.74939217e+00
 -1.28979429e+00  1.37115022e-01 -3.20027623e-01  7.44886388e-01
 -6.58607222e-01 -8.83631889e-01 -2.63782307e-01 -3.26923190e-01
 -1.25902688e+00  9.69908590e-01  1.36161704e+00 -1.94516030e+00
